svm_type c_svc
kernel_type rbf
gamma 0.025641
nr_class 28
total_sv 554
rho 0.103145 0.0286103 0.0753307 0.0580455 -0.113633 -0.0858176 0.0635775 0.101956 0.0362681 0.0634442 0.0601196 0.145399 0.0737943 0.169645 -0.046024 0.276775 0.202933 0.0894762 0.144352 0.259102 0.116121 0.107759 0.279208 0.2667 0.130157 0.0665626 0.121045 -0.0375464 -0.0273082 -0.0448384 -0.214136 -0.186623 -0.041402 -0.000517986 -0.0664331 -0.0417381 -0.0451891 0.0464983 -0.0289078 0.072803 -0.162224 0.19119 0.109049 -0.0138213 0.0453085 0.171151 0.0146773 0.00567632 0.193973 0.179735 0.0298484 -0.0361484 0.0199932 0.0468321 0.0293877 -0.141718 -0.114166 0.0348886 0.0734597 0.00762377 0.0348661 0.0315308 0.115155 0.0452148 0.138519 -0.0766156 0.245271 0.170802 0.0609554 0.114138 0.227304 0.0870537 0.0790674 0.247656 0.234996 0.100415 0.037953 0.0917684 -0.0174861 -0.187289 -0.160606 -0.0125108 0.0267613 -0.0392301 -0.0126916 -0.0162153 0.0687153 -0.00155471 0.0922956 -0.130318 0.201085 0.125029 0.0142134 0.0677041 0.182724 0.0404015 0.0323688 0.20358 0.190561 0.053916 -0.00886172 0.0451557 -0.170381 -0.143599 0.00555564 0.0442149 -0.0217452 0.00550199 0.00219673 0.0860706 0.0159026 0.10959 -0.109631 0.218256 0.142348 0.0316774 0.0850968 0.19991 0.0578348 0.0497901 0.222629 0.208408 0.0713535 0.00857284 0.0625994 0.0280521 0.175823 0.213541 0.149122 0.175685 0.172465 0.254958 0.185717 0.277808 0.0712269 0.380941 0.310218 0.201068 0.253935 0.364161 0.227108 0.219192 0.383312 0.371416 0.240439 0.178656 0.231799 0.148496 0.186087 0.121609 0.148375 0.14522 0.226342 0.158533 0.249094 0.0432594 0.351726 0.281008 0.173912 0.225301 0.334451 0.1992 0.191455 0.354076 0.34195 0.21211 0.151416 0.203795 0.0407993 -0.0272838 -7.37516e-05 -0.00359913 0.0851362 0.0107954 0.109921 -0.116205 0.220212 0.144069 0.027519 0.0840389 0.201923 0.0552574 0.0467797 0.222749 0.209739 0.0694773 0.00300784 0.0602266 -0.0659297 -0.0411481 -0.0446102 0.0427264 -0.0286175 0.0676343 -0.161685 0.18164 0.102152 0.00489723 0.0416674 0.162381 0.0136518 0.00557866 0.184259 0.170635 0.0271734 -0.035669 0.0183831 0.0272188 0.0240042 0.107642 0.0376149 0.131044 -0.0849607 0.235775 0.163398 0.0533706 0.106588 0.218513 0.0864479 0.0714992 0.241323 0.225826 0.0948014 0.030388 0.0844587 -0.00350125 0.0854755 0.0110445 0.110178 -0.11614 0.220496 0.144385 0.0278387 0.0916638 0.202241 0.0555017 0.047061 0.222972 0.210051 0.0697428 0.00328827 0.0605666 0.0902235 0.0145712 0.116313 -0.112264 0.231288 0.152116 0.0313268 0.0891545 0.212348 0.0590281 0.0515326 0.233883 0.220487 0.0738071 0.00679144 0.0641019 -0.0707778 0.0264512 -0.209463 0.144665 0.0629263 -0.0596122 0.0027781 0.124868 -0.0284114 -0.0364378 0.147494 0.13328 -0.0155475 -0.0793891 -0.0248956 0.0955033 -0.1286 0.208762 0.131142 0.0158333 0.0696697 0.188002 0.0419723 0.0339622 0.211637 0.19693 0.0554657 -0.00728704 0.0467599 -0.235768 0.108071 0.033056 -0.0866989 -0.0247978 0.0898943 -0.0521255 -0.0601296 0.110582 0.0976606 -0.0416831 -0.104155 -0.0498618 0.348885 0.271473 0.147002 0.208296 0.330564 0.177303 0.168042 0.351372 0.338457 0.192686 0.119775 0.182722 -0.0861151 -0.208405 -0.132522 -0.0191413 -0.161236 -0.173221 0.00262633 -0.0105454 -0.161163 -0.214471 -0.162067 -0.124776 -0.0578221 0.0653648 -0.0850389 -0.0929983 0.0889313 0.0743092 -0.0781061 -0.138257 -0.0844507 0.0584776 0.188439 0.027918 0.0192317 0.211142 0.197027 0.0430182 -0.0230782 0.0332222 0.114417 -0.0274163 -0.0354123 0.134977 0.122158 -0.0144831 -0.0783141 -0.0238149 -0.142629 -0.153233 0.0217579 0.00818141 -0.140832 -0.196147 -0.143317 -0.00806498 0.172038 0.150697 0.0116769 -0.0511534 0.00457301 0.175968 0.161815 0.021562 -0.0412772 0.0128034 -0.013051 -0.221627 -0.236856 -0.164753 -0.149616 -0.204115 -0.15133 -0.0669367 -0.00924491 0.054659
label 2 3 4 5 6 7 8 9 98 99 100 102 103 104 106 107 109 110 112 113 114 115 116 118 119 120 121 122
nr_sv 19 19 17 20 23 15 18 18 22 21 22 21 19 21 22 15 25 19 17 18 16 22 18 25 21 21 20 20
SV
0.5034394832535095 0.4675120401657484 0.4892798793720599 0.4812841740788843 0.4024334354756319 0.4156283531814947 0.483853463368687 0.5006693821700495 0.4708473098343112 0.4829664377848799 0.4819972290524639 0.5208994503730113 0.487937203804457 0.5315589276802287 0.4332147853928717 0.5801892514179106 0.5465194120866388 0.4953365655161256 0.5198643126113247 0.57236091603965 0.5071304744934632 0.5036971004613641 0.5812692586320634 0.5755861367465482 0.5131829531552818 0.4847838172926304 0.5089581978212024 1:3 2:7 3:9 4:7 5:6 6:6 7:3 8:4 9:7 10:4 11:5 12:4 13:4 14:3 15:4 16:4 17:3 18:4 19:9 20:10 21:10 22:3 23:2 24:1 25:1 26:1 27:1 28:1 29:2 30:7 31:10 32:11 33:13 34:13 35:12 36:13 37:18 38:15 39:10 
0.5724048444816825 0.5344263346041488 0.558430891731266 0.5488170621784948 0.4608562067626386 0.474089768544888 0.5524016297958148 0.5724245503500233 0.5380579964943603 0.5524770871775909 0.5503746057127719 0.5950884997137478 0.5575870517352834 0.6076742716602253 0.4949851625978708 0.663685853298945 0.6248495804881095 0.565666167088008 0.5942745294504402 0.6547055569964653 0.5800690032782988 0.5752826554367655 0.6647405263289001 0.6582700333588534 0.5869576932231989 0.5537613857657778 0.5826631264756986 1:3 2:8 3:9 4:7 5:6 6:10 7:3 8:3 9:4 10:3 11:4 12:3 13:4 14:3 15:4 16:4 17:3 18:4 19:9 20:10 21:10 22:1 23:4 24:4 25:3 28:2 29:2 30:7 31:10 32:12 33:12 34:14 35:13 36:14 37:16 38:14 39:10 
0.7233217718639033 0.659616173506955 0.6907782758369119 0.683290949542753 0.5690097852344899 0.5872822771467312 0.6826037947534933 0.7069804903834025 0.6645869673802877 0.6821857528891622 0.680674356824513 0.7346276950762251 0.688703941419201 0.750029509444889 0.6125611727562418 0.8192456189451907 0.7718879264955312 0.698920441881894 0.7340319225141152 0.8072995039728288 0.7159848354498605 0.7106548330547421 0.820515772138793 0.8126858628734629 0.7250004464132198 0.6843353540957126 0.7192179966972 1:3 2:7 3:9 4:7 5:5 6:6 7:3 8:3 9:4 10:4 11:5 12:4 13:4 14:4 15:5 16:6 17:4 18:5 19:9 20:10 21:10 22:1 23:3 24:1 28:2 29:8 30:13 31:11 32:11 33:12 34:12 35:13 36:15 37:13 38:11 39:1 
0.4229876353688916 0.3985598275886444 0.416862102081516 0.4095485911045051 0.3431443165901119 0.354294433895828 0.4119892324092786 0.4273739718436514 0.4022416985369852 0.4126968385944308 0.4109805396962513 0.4437292952956152 0.415994063928347 0.4530359966487379 0.3693624568261052 0.4950124530890997 0.466107121912686 0.4227156388290331 0.4441098721312601 0.4880481237204436 0.4323380739192588 0.4295161891803115 0.4964546663216813 0.4912239805251771 0.4383417063954115 0.4132789641202437 0.4346163243711328 1:4 2:8 3:9 4:8 5:8 6:8 7:5 8:4 9:4 10:3 11:4 12:3 13:4 14:3 15:3 16:4 17:3 18:4 19:9 20:10 21:10 28:3 29:7 30:10 31:11 32:11 33:13 34:13 35:12 36:15 37:12 38:10 39:1 
0.03533605536821931 0.03511516858567967 0.03749724654668159 0.03788099554216462 0.03105937448774537 0.03124814148357102 0.03391858853549919 0.03838738861824315 0.03574356920252767 0.03692088529944354 0.03743749575612228 0.03771053299043688 0.03815006918209847 0.03657115806598191 0.03276698097963191 0.03020221599458832 0.0344164649218108 0.03880093314713757 0.03558160613107096 0.03168977743327922 0.03734936924880944 0.03749950221329499 0.03265764127874081 0.0313471819366805 0.03763815638315095 0.03694105804284626 0.03756625261932355 1:4 2:8 3:9 4:7 5:6 6:7 7:3 8:3 9:4 10:3 11:4 12:3 13:4 14:3 15:3 16:4 17:3 18:4 19:9 20:10 21:10 29:1 30:7 31:10 32:11 33:10 34:12 35:12 36:12 37:15 38:12 39:9 
0.07408024686461578 0.08002797013759726 0.08274920765787641 0.08247402476368378 0.06862130197515494 0.07097055427986282 0.08192347576015288 0.08476075981499316 0.08196892873938461 0.08285140088112286 0.08236075745474865 0.09005304459738972 0.08408451495014505 0.09006366912916298 0.07355432851699943 0.09910693436407686 0.0935741460680552 0.08626658261497365 0.08956042138406989 0.09785469500631733 0.08651201892349812 0.08681089892457136 0.09877285130027424 0.09808140245234301 0.08839323269425453 0.0823428365882994 0.08636405591607686 1:3 2:7 3:9 4:7 5:6 6:6 7:3 8:3 9:4 10:3 11:4 12:3 13:4 14:3 15:4 16:4 17:3 18:4 19:9 20:10 21:11 22:1 27:1 28:2 29:7 30:9 31:10 32:11 33:12 34:12 35:13 36:15 37:12 38:9 
0.5898844746854731 0.5498188129142516 0.5745706087343811 0.5668316199041332 0.4738823742472776 0.4903977313673004 0.5673118441805418 0.5891246460953836 0.5541070701772969 0.5682609445613438 0.5666312015965878 0.6129435693428651 0.5739578901981806 0.625366064466068 0.5105316494677984 0.6834434909412503 0.6430900236456751 0.5821607721186447 0.6121828476330318 0.6732901602977684 0.596417998147056 0.5922572574584325 0.6845878381432587 0.6778308346853951 0.6040435286999402 0.5699016256392124 0.5992515697919857 1:3 2:7 3:9 4:7 5:6 6:6 7:3 8:3 9:4 10:4 11:4 12:4 13:7 14:4 15:4 16:5 17:4 18:5 19:10 20:11 21:11 22:1 23:2 24:1 25:1 28:2 29:3 30:9 31:13 32:12 33:10 34:12 35:12 36:13 37:16 38:13 39:11 
0.1687551506031689 0.155143885914905 0.1625002553829525 0.158819690048327 0.1343897280604701 0.1383926498748892 0.1576959546886415 0.1658771993420512 0.1558229793620867 0.1605032605006912 0.1608544329914667 0.1735492366065944 0.1620175308593416 0.1772555246578715 0.1436630713156432 0.1962522249774612 0.1835496115923843 0.1649031014216345 0.1734132091557702 0.192926856990625 0.1684873827413418 0.1673269496713061 0.1963596912721479 0.1946613077252461 0.1715368008105481 0.1603365364298704 0.1690266470582676 1:3 2:7 3:9 4:7 5:6 6:6 7:4 8:5 9:4 10:3 11:4 12:3 13:4 14:3 15:4 16:4 17:3 18:5 19:9 20:10 21:10 29:1 30:6 31:9 32:10 33:10 34:12 35:14 36:15 37:15 38:12 39:9 
0.3528848201256326 0.3138990950704003 0.3294115065818293 0.3225291061201937 0.2718215386732983 0.2791189716423096 0.3244214609679638 0.3368202152883239 0.314796383297337 0.3246778374238163 0.3237168182935071 0.3484444450168956 0.3269716590935696 0.358178366683859 0.2920589069476368 0.3898196940096395 0.3672254821610474 0.3316883709792415 0.3483262103272569 0.3841731321033661 0.341655710476662 0.3375151811065822 0.3898995247691386 0.3867558284531491 0.3443084763844618 0.3260632357389228 0.3432985513396176 1:3 2:7 3:9 4:7 5:6 6:6 7:3 8:3 9:4 10:3 11:4 12:3 13:4 14:3 15:3 16:4 17:3 18:4 19:9 20:10 21:10 28:1 29:6 30:9 31:10 32:10 33:12 34:12 35:12 36:15 37:12 38:9 
0.2506847797844223 0.2324486908809226 0.2434097267676529 0.2407138916039882 0.2006470528512048 0.2065464723258395 0.2412950591567793 0.249276096359938 0.2349825950993187 0.2407447552779397 0.2402252707031889 0.2602328990766204 0.2430947240947244 0.2654760014788059 0.2157842352671694 0.2908197744447603 0.2734002852311709 0.2462375355000006 0.2600202086501041 0.2872976897174598 0.2525082518347904 0.2505170534191924 0.2924122235131934 0.288779113345084 0.2568801837660249 0.2421977228908406 0.2541146374014296 1:3 2:7 3:9 4:7 5:6 6:6 7:3 8:4 9:6 10:4 11:5 12:3 13:4 14:3 15:4 16:4 17:7 18:4 19:9 20:10 21:10 29:1 30:6 31:9 32:10 33:10 34:13 35:15 36:14 37:16 38:13 39:11 
1 0.934086477443001 0.9759155488433195 0.9608247643419477 0.8054264639773527 0.8298346069131439 0.9680101378046116 1 0.9404069373073473 0.9654884560315351 0.9629267812425347 1 0.9747645915523427 1 0.8660243748529766 1 1 0.9892441268041735 1 1 1 1 1 1 1 0.9677009750767964 1 1:2 2:7 3:9 4:6 5:5 6:5 7:2 8:2 9:3 10:3 11:4 12:3 13:4 14:3 15:4 16:4 17:3 18:5 19:8 20:9 21:9 30:1 31:6 32:9 33:10 34:9 35:12 36:13 37:13 38:15 39:12 
0.5946873656687004 0.5545759835234285 0.5798024934730245 0.5721205465425758 0.478231718745185 0.4929571060494818 0.5769039832328022 0.5939575949687753 0.5590578690554713 0.5735162337363675 0.5713667321560127 0.6172152202125369 0.5791378472469273 0.6298877521596147 0.5144268045127377 0.6875202258385131 0.6485690188526443 0.587275005212866 0.6169407749008201 0.6782961471017213 0.601734833919113 0.5969941909941678 0.6885918755207516 0.6823612726852908 0.6090493437156157 0.5744868255239838 0.6039842930770121 1:3 2:7 3:9 4:7 5:6 6:6 7:3 8:3 9:4 10:4 11:8 12:6 13:4 14:3 15:4 16:4 17:3 18:4 19:9 20:10 21:10 26:1 27:3 28:1 29:2 30:7 31:10 32:11 33:11 34:14 35:14 36:14 37:15 38:12 39:10 
0.08587201937707378 0.07897661713294825 0.08152525304576962 0.07913820810265802 0.067178578024452 0.06936336947025781 0.08330529935714441 0.08477653098801627 0.07954104941638269 0.0815163098089816 0.0802031919228996 0.09822700859330138 0.08295972852958108 0.1065393631855815 0.07488374098207165 0.1440258496499528 0.1173248966011277 0.08214576089051107 0.1001435744582747 0.1379043097820657 0.09015271283108592 0.08527982449560839 0.1438444086584464 0.1396497732576513 0.09276001965427659 0.08382703623781462 0.09192885253009454 1:3 2:7 3:9 4:7 5:5 6:6 7:3 8:3 9:4 10:3 11:4 12:3 13:4 14:3 15:3 16:4 17:3 18:5 19:9 20:10 21:10 29:1 30:6 31:9 32:9 33:10 34:12 35:12 36:12 37:15 38:12 39:10 
0.3252552262142625 0.2906697891822281 0.3032087334118301 0.2989255905833682 0.2506263201299741 0.2585461826528198 0.3016910312855293 0.3117095544649613 0.2932376059898232 0.300227070567977 0.2993956875908211 0.3244701320111117 0.3039217302198078 0.3310459553678995 0.2693477964077307 0.3618202010835216 0.3403392183331666 0.3073341016129076 0.3238590642940407 0.3566107345553575 0.315288695193586 0.3129777186926571 0.3631796386735292 0.358944072261574 0.319349849992437 0.3021895379297618 0.3168609730140013 1:3 2:7 3:9 4:7 5:6 6:6 7:3 8:3 9:4 10:3 11:4 12:3 13:4 14:4 15:6 16:5 17:3 18:4 19:9 20:10 21:10 28:1 29:6 30:9 31:10 32:10 33:12 34:12 35:13 36:15 37:12 38:10 39:3 
0.7933996436894842 0.739489158158265 0.7729303348196392 0.7601134448470689 0.6369943192162822 0.6570890632104044 0.7645417869901152 0.7920711723221564 0.7453034485098687 0.7648322450215398 0.7619743139819171 0.8229945007632012 0.771862573272772 0.8407162443136789 0.6858234571540573 0.9176261151280171 0.8643879260494769 0.7831741641903431 0.822603143423131 0.9051513025402841 0.802215308672374 0.7960559514377128 0.9196323415249 0.9106855981804663 0.8122827132126236 0.7665190836424074 0.8058666172544791 1:8 2:9 3:9 4:7 5:6 6:6 7:3 8:3 9:4 10:3 11:4 12:3 13:4 14:3 15:3 16:4 17:3 18:4 19:9 20:10 21:10 23:3 24:6 25:3 28:2 29:3 30:8 31:11 32:12 33:11 34:13 35:13 36:13 37:16 38:14 39:11 
0.03928108141672818 0.03387221003711809 0.03570094741217672 0.0356994059227804 0.02895782828717491 0.02963710658012612 0.03286643628797446 0.03579673187284004 0.03365982298832503 0.03433553528399354 0.03430031517089009 0.03296844062152745 0.03349186772181108 0.03232371145938683 0.02972346757021901 0.02651413500499707 0.03097276238866529 0.0353884938799168 0.03312986713260013 0.02798516977635611 0.03439441324648998 0.03679420217705615 0.02607764745355153 0.02770822672516575 0.03495871200916249 0.03298512511563868 0.03404390709429455 1:3 2:7 3:9 4:7 5:5 6:6 7:3 8:3 9:4 10:3 11:4 12:3 13:4 14:4 15:4 16:5 17:4 18:4 19:9 20:10 21:10 28:1 29:2 30:7 31:10 32:9 33:10 34:12 35:12 36:12 37:15 38:12 39:9 
0.5394587813166439 0.5028133427122484 0.5256522639657274 0.5163444964322474 0.4329053489046525 0.4474896196178255 0.5196483607350485 0.5391230783953924 0.5061228984672231 0.5197347331367492 0.5180447346463347 0.5598346076669507 0.5249807639792543 0.5724027000928976 0.4658942517707913 0.6240434776547004 0.5882200185885759 0.5332420240232765 0.5590687729359165 0.6152463243939198 0.545558481727609 0.5415596234508127 0.6251674450279762 0.6188678344230555 0.5517256341739295 0.5207811639560916 0.5480902927590897 1:3 2:7 3:9 4:10 5:7 6:6 7:3 8:3 9:4 10:3 11:4 12:3 13:4 14:3 15:5 16:4 17:7 18:5 19:9 20:10 21:10 29:1 30:6 31:9 32:10 33:11 34:14 35:13 36:14 37:16 38:13 39:12 
0.7872679412626036 0.73589151249948 0.769574405285198 0.7580085131299416 0.6340666129564375 0.6541598705640791 0.7634486838327882 0.788379410878858 0.7409720235106021 0.7605661552744778 0.758425597485451 0.8196471876862792 0.7682137107073798 0.8375258632030307 0.6830656449859503 0.9137743685316995 0.8612183987440221 0.7799513904813722 0.8188271928279338 0.9009156040931039 0.7988167495574068 0.7930925990895357 0.9153986738812131 0.906333278054482 0.8083776751880324 0.763280194976348 0.8022836860927839 1:3 2:7 3:9 4:7 5:6 6:7 7:6 8:4 9:6 10:7 11:5 12:3 13:7 14:3 15:4 16:4 17:3 18:4 19:9 20:10 21:10 28:2 29:7 30:10 31:11 32:12 33:16 34:13 35:13 36:15 37:13 38:11 39:1 
0.1513961759318693 0.1429158925100611 0.1489841529278493 0.1469684821876492 0.1232234777351528 0.1271898660022763 0.1565240266322735 0.153188512577057 0.1441077943117987 0.1475344225841201 0.1467572604608471 0.1572943610714582 0.1486905593434895 0.160825016792861 0.1328874023557072 0.1731611691792861 0.1645039755040674 0.1507887752485183 0.1577242998339953 0.1699719295196365 0.1553707242483963 0.1542366955940318 0.1721040706217992 0.1713623519031403 0.1564580664044391 0.1483692076716389 0.1554065407033316 1:3 2:7 3:9 4:7 5:6 6:7 7:5 8:5 9:6 10:5 11:4 12:3 13:4 14:3 15:3 16:4 17:3 18:4 19:9 20:10 21:10 28:1 29:2 30:7 31:10 32:11 33:11 34:13 35:13 36:13 37:15 38:12 39:9 
-0.3978022409249754 0.4262980802157884 0.4305053909860919 0.4223210804671569 0.3480850111286016 0.3592401056612674 0.4246316290244634 0.4424445158439358 0.4131294558756426 0.423974701129197 0.4219502111539187 0.462959322444568 0.4297568880001798 0.4747169711027455 0.3711878085408025 0.5273961571334336 0.4907500712162488 0.4362796905906883 0.4628598096614145 0.5186978744734043 0.4484264947919653 0.4453736428107938 0.5288310271853347 0.5229724545478005 0.456076093651627 0.4264581617939305 0.4520021124734633 1:3 2:7 3:8 4:7 5:6 6:3 7:3 8:4 9:3 10:4 11:6 12:4 13:3 14:4 15:4 16:6 17:7 18:8 19:9 20:7 21:4 28:2 29:6 30:10 31:8 32:8 33:6 34:8 35:10 36:19 37:16 38:13 39:4 
-0.04447967207102393 0.04837652102874836 0.04903837112669682 0.04703237724045616 0.03940170852499128 0.04128478472449215 0.04812447961949884 0.04992149169249394 0.04727802826762938 0.04809578880543263 0.04756251880826438 0.05228444656741574 0.04920935241667393 0.05405429053586624 0.04210113913633295 0.06025308647147697 0.05548106051534424 0.0494627080175469 0.05228134779208713 0.0588023024785375 0.05094081654136916 0.05039114121847074 0.05980687872981146 0.05932646377130054 0.05132925704467462 0.04846506749877569 0.05085836341947784 1:3 2:7 3:8 4:7 5:6 6:3 7:3 8:4 9:2 10:4 11:3 12:3 13:4 14:4 15:7 16:7 17:7 18:8 19:9 20:7 21:3 28:2 29:6 30:10 31:9 32:9 33:7 34:9 35:10 36:19 37:16 38:10 39:2 
-0.3808618585660514 0.4044293566605224 0.4092626367374338 0.4101170561684987 0.3306360508584378 0.3443308297241035 0.4039662365675753 0.4199599279923198 0.3924393790779555 0.4027528795673811 0.4017744255777398 0.4402047236400625 0.4081130101823489 0.450554257211269 0.3521660539574006 0.5012670774483646 0.4660342134795147 0.4146461850293815 0.4389803220420579 0.4923255391406555 0.4268915237724125 0.4226101994245378 0.5027189230379709 0.4960510032275961 0.4323933511932928 0.4054741012961934 0.4287131111960322 1:4 2:7 3:8 4:7 5:6 6:3 7:4 8:4 9:6 10:6 11:5 12:3 13:3 14:3 15:3 16:6 17:7 18:8 19:9 20:7 21:3 28:4 29:7 30:10 31:9 32:9 33:7 34:9 35:11 36:20 37:15 38:10 39:1 
-0.3732124520452017 0.3996794626497348 0.4035438350037387 0.3968741595485107 0.3266616105266735 0.3378840730382625 0.3981757175314863 0.4147983058014888 0.3878561818958129 0.3977304499807279 0.3973681991117824 0.4347260240614553 0.4031195735960038 0.445204281995685 0.3470701869683357 0.4942531761996922 0.4603486617975632 0.4091971992209573 0.4336952688797402 0.486623954096348 0.4213689500760397 0.4181067585509404 0.4958565821950497 0.4901684708482913 0.4277523539885426 0.4005846538376966 0.4234964972722717 1:4 2:7 3:8 4:7 5:6 6:4 7:4 8:3 9:4 10:3 11:4 12:4 13:4 14:4 15:4 16:6 17:6 18:7 19:9 20:8 21:3 28:8 29:8 30:10 31:9 32:8 33:9 34:12 35:19 36:15 37:11 
-0.7787496604199855 0.8361569455297668 0.8448361691315459 0.8291436359536921 0.6822409374582883 0.705725738661238 0.8323629854440159 0.8679012943828587 0.8110067747320598 0.8321903566276811 0.8292769506804677 0.9082238637735282 0.8432691104133595 0.9314198241294528 0.7275163077015629 1 0.9628036599495301 0.856212157108882 0.9078773905006804 1 0.8809435841458277 0.8732013261747167 1 1 0.8942493975235617 0.8367570955639984 0.8861807002547729 1:3 2:7 3:8 4:6 5:6 6:3 7:3 8:2 9:3 10:3 11:3 12:3 13:3 14:3 15:3 16:6 17:7 18:8 19:9 20:7 21:3 22:9 23:3 28:3 29:7 30:10 31:9 32:8 33:7 34:9 35:11 36:20 37:16 38:10 39:1 
-0.2125091515738726 0.2271603239166851 0.2296276449787705 0.2264146267787861 0.1856783827073687 0.1917780863258101 0.2278142853818126 0.2355314043338154 0.2204024394877729 0.2268280085347869 0.2261360327150675 0.2472623366286196 0.2293440135724079 0.254906438451673 0.199692366362022 0.2801390663808478 0.262341612396829 0.2341350996337253 0.2478929505929107 0.2762501248034214 0.2393880762019804 0.2364416931003054 0.2832654173957434 0.2794021135854357 0.2430210782456904 0.2280640425947722 0.2422321092608718 1:3 2:7 3:8 4:7 5:6 6:3 7:3 8:2 9:3 10:3 11:3 12:3 13:3 14:3 15:3 16:5 17:6 18:9 19:11 20:7 21:3 28:6 29:9 30:8 31:8 32:6 33:8 34:10 35:19 36:15 37:10 38:1 39:1 
-0.3610501076216217 0.3871899257854977 0.3906546299926452 0.3841110978145023 0.315223263391786 0.3270715826204882 0.3849394811301256 0.402077770384067 0.3749814855194291 0.3849732674566629 0.3830983915424324 0.4205681687119172 0.3904947593793519 0.431244681319168 0.3363372010415037 0.4789837999605847 0.4449414608626751 0.3959928139333505 0.4198019531270674 0.469985040853044 0.407698625846772 0.4040301025649874 0.4796061580235188 0.474324446578584 0.4134417771354665 0.3866099528615979 0.4097370242869776 1:3 2:7 3:8 4:7 5:6 6:3 7:3 8:2 9:3 10:3 11:3 12:3 13:4 14:4 15:4 16:6 17:6 18:8 19:9 20:8 21:4 22:1 23:1 24:1 28:6 29:9 30:8 31:8 32:6 33:8 34:12 35:21 36:16 37:9 38:2 39:2 
-0.499962623403623 0.5381365922772745 0.5441331654861595 0.5342704427157033 0.4391011368690097 0.4543640878812963 0.5360656021830533 0.5590622755999658 0.5219257338382661 0.5358559019361615 0.5339119971603797 0.5846561314899603 0.5426992026173113 0.5994528041308024 0.4682797421434746 0.6666459090091728 0.6201747641852662 0.551619697065394 0.5846853284043839 0.654931521045397 0.5672383839725686 0.5619656579987813 0.6680312623784476 0.6599526898980386 0.5757943866781705 0.5386369377860901 0.5709741530806172 1:3 2:7 3:8 4:6 5:6 6:3 7:3 8:2 9:3 10:3 11:3 12:3 13:3 14:3 15:5 16:10 17:8 18:8 19:9 20:7 21:3 25:4 26:1 28:4 29:8 30:10 31:10 32:9 33:7 34:9 35:11 36:19 37:15 38:9 
-0.4781779796973999 0.4997174694886339 0.5047419963409462 0.495696964593373 0.4077929117591301 0.4221199686239931 0.4975423731842702 0.5183737996781882 0.4841393139980323 0.4972148798814772 0.4962048558541738 0.5435939038781268 0.5039168779601458 0.5568644308422138 0.4347732943448456 0.6199460768151737 0.5755312484932045 0.5116477810620509 0.5426095225530668 0.6088386834750398 0.5266409088865014 0.5219793591607788 0.621605807920218 0.6135108140464146 0.5341694204952503 0.5003098233052757 0.5296481124167506 1:3 2:8 3:8 4:7 5:6 6:3 7:3 8:2 9:3 10:3 11:3 12:3 13:3 14:4 15:6 16:7 17:7 18:8 19:9 20:8 21:6 22:2 23:1 24:2 25:1 26:1 28:3 29:6 30:9 31:8 32:8 33:7 34:12 35:12 36:20 37:17 38:13 39:2 
-0.2601606653675623 0.2816920790483497 0.2844803253917859 0.2776105764186067 0.2299963920535317 0.2374673765858463 0.2800807599168156 0.29233664836007 0.2730368503877828 0.2804872081139073 0.2798874730323163 0.3065014233443971 0.283620246459282 0.3139425671792843 0.2442455502651182 0.3495771767206438 0.3241684297544848 0.2883663661875673 0.305545592881238 0.3432539698259564 0.2970345701421516 0.2943747623344517 0.3504640741316848 0.3454438534936561 0.3011585683574139 0.2820752118581575 0.2981900369074347 1:3 2:7 3:8 4:7 5:6 6:3 7:3 8:4 9:3 10:3 11:3 12:3 13:3 14:3 15:3 16:6 17:7 18:8 19:9 20:7 21:4 27:3 28:3 29:7 30:11 31:8 32:8 33:6 34:8 35:10 36:19 37:15 38:10 39:1 
-0.2164318278927081 0.2317698971633922 0.2340971574377997 0.2299594254673431 0.1908980911742494 0.1963705349384573 0.2301265900859059 0.2416259667522777 0.2252095878779209 0.2313659394603378 0.2306118903747418 0.2522175473119748 0.2344602229962291 0.2566308175293224 0.199449809949572 0.2887521079954765 0.2672198231354205 0.2370162164704805 0.251349970131549 0.2827655108012196 0.2463491246229021 0.2447750441453008 0.2873649264713304 0.2841214634553441 0.2488472400406707 0.2322427764550391 0.2449461027781188 1:3 2:7 3:8 4:6 5:6 6:3 7:3 8:2 9:3 10:3 11:3 12:3 13:3 14:3 15:3 16:5 17:6 18:8 19:9 20:7 21:3 28:6 29:9 30:8 31:7 32:6 33:8 34:10 35:19 36:15 37:9 
-0.1914739270008429 0.2059946239871583 0.2076897451810206 0.2034325690921163 0.1683881584133274 0.1737667612422731 0.2049299349327279 0.2126948285238024 0.1996055545544299 0.2049653498327798 0.2042622342898121 0.2233799521177544 0.2073437940731333 0.2297057252261694 0.1793605362666596 0.2545188350712794 0.23755115368005 0.2108235338011501 0.2240911787920474 0.2508180889139592 0.2169462158238644 0.2147814588061032 0.2550706421664888 0.2524313646474829 0.2209322868114016 0.2060854880510393 0.2179474706266587 1:3 2:7 3:8 4:7 5:6 6:3 7:3 8:4 9:5 10:5 11:3 12:3 13:3 14:3 15:5 16:5 17:6 18:8 19:8 20:7 21:3 28:6 29:10 30:9 31:9 32:7 33:8 34:11 35:19 36:15 37:9 38:1 39:1 
-0.8971476910854573 1 0.9724739381062396 0.954764231222213 0.7857492530612999 0.8132533231071964 0.9580648083244875 0.9993576106251427 0.9331332919623355 0.9585221719605693 0.9545484432249739 1 0.9711889937593801 1 0.8379601246199191 1 1 0.9859828026721844 1 1 1 1 1 1 1 0.9638052475534089 1 1:7 2:6 3:7 4:6 5:6 6:5 7:5 8:5 9:5 10:4 11:5 12:5 13:5 14:10 15:10 16:10 17:3 18:3 19:3 20:3 21:3 28:1 29:1 30:5 31:7 32:9 33:8 34:8 35:8 36:6 37:21 38:21 39:21 
-0.1436355510758693 0.1401920903986409 0.1419124832501903 0.1389341241364062 0.1148979547687233 0.1187181936583986 0.1398964317860579 0.1460518383977574 0.1363126402449062 0.1398139495481445 0.1391956441587274 0.152378726659124 0.1423126273140069 0.1572113821440899 0.1231130258367686 0.1748777688476087 0.1625956350895411 0.1447509259996624 0.1530003152225143 0.1713910073510779 0.148463791906715 0.1471128044637428 0.1749366188694784 0.173029991722519 0.1513782763335063 0.1408477640509148 0.1487166351731501 1:3 2:7 3:8 4:7 5:6 6:3 7:3 8:4 9:3 10:3 11:3 12:3 13:3 14:3 15:3 16:6 17:7 18:8 19:9 20:7 21:4 25:1 26:3 27:1 28:2 29:6 30:10 31:8 32:8 33:7 34:11 35:11 36:19 37:15 38:10 39:1 
-0.6190998829286787 0.663798704280867 0.6712627579299212 0.6598863001472505 0.542411420793366 0.5612575891492785 0.6614284514109305 0.6898658592674145 0.6440157027594425 0.660598951221674 0.6581172135678474 0.7215720053570316 0.6704751447000277 0.740001830814727 0.5778289581184031 0.8219185572008573 0.7649827259779877 0.6804175041655214 0.7208267334699794 0.8081706504337678 0.7001424469830663 0.6938257317618445 0.8237761760210456 0.8136810173861561 0.7104163609628094 0.6647240433120689 0.7032349302786162 1:3 2:7 3:8 4:7 5:6 6:3 7:4 8:5 9:5 10:3 11:5 12:5 13:3 14:3 15:4 16:7 17:8 18:8 19:8 20:7 21:5 22:1 28:7 29:11 30:12 31:10 32:7 33:8 34:10 35:19 36:16 37:11 38:2 39:2 
-0.6447943683175607 0.6920778839048661 0.6996097402876866 0.6868003847779182 0.5651684553750851 0.5850276827055139 0.689401285850283 0.7189023166354688 0.6721510689970908 0.6898012138550013 0.68652127489517 0.7529247907380912 0.698839620631176 0.7715536046933525 0.6025350622695875 0.8564773270111267 0.7976527489745937 0.7092200615783156 0.7518703348597895 0.842265747049878 0.729830979650798 0.7229218953508496 0.8591494929828827 0.8485516026666057 0.7405914688587997 0.693430944466785 0.7335990706289159 1:4 2:7 3:8 4:6 5:6 6:3 7:3 8:2 9:3 10:3 11:3 12:3 13:4 14:6 15:4 16:6 17:7 18:8 19:9 20:7 21:3 24:5 25:6 26:1 28:3 29:7 30:10 31:9 32:8 33:8 34:12 35:12 36:20 37:16 38:10 39:2 
-0.5594235577728972 0.591199159402751 0.5973100464630634 0.5935898479367765 0.4828308701052699 0.5007630758899344 0.5889681147441334 0.6139465131667221 0.5733275646191752 0.5888541735632328 0.5866390338877218 0.6433125060539561 0.5965858492028693 0.659270335744369 0.5146111676708709 0.7316235741788394 0.6819600955190147 0.606154279956557 0.6421870476733559 0.7195329714679763 0.6235435324312717 0.6180306515922815 0.7341319451791226 0.7246820479581498 0.6327464593696727 0.5919089353449397 0.6264128529653421 1:3 2:7 3:8 4:7 5:6 6:3 7:3 8:2 9:3 10:3 11:5 12:4 13:4 14:9 15:6 16:6 17:7 18:7 19:9 20:7 21:3 28:3 29:7 30:10 31:10 32:9 33:8 34:9 35:11 36:19 37:15 38:9 39:2 
-0.9026894208137275 0.9616826502516839 0.9719925264666383 0.9589928564161887 0.7850299633365422 0.8139334266466224 0.9603838643761154 0.9983810469644295 0.9330613369699911 0.9573361651100303 0.9541287343390332 1 0.9705022880478605 1 0.8371473818008411 1 1 0.9852902093210578 1 1 1 1 1 1 1 0.9625791498241507 1 1:3 2:6 3:8 4:7 5:6 6:3 7:3 8:3 9:6 10:7 11:7 12:4 13:3 14:3 15:3 16:6 17:7 18:8 19:8 20:7 21:3 28:1 29:3 30:6 31:9 32:9 33:9 34:7 35:8 36:10 37:19 38:17 39:13 
-0.0487348586978252 0.05378014979951401 0.0548320106277751 0.05285357186371243 0.04229362545324447 0.04485201383247577 0.05318227937776525 0.05608490832279027 0.05163080352352505 0.05246889718844549 0.05203804193483295 0.05865404702539695 0.05330545926114037 0.06050325673716331 0.04816768227763044 0.06566885895948685 0.06184699625108426 0.05443707949308754 0.05786926246345991 0.06526501836984977 0.05503388209771307 0.05442418768781498 0.0661598392939961 0.06465645736764605 0.05666961193492277 0.05370061127512302 0.0566252604126877 1:3 2:7 3:8 4:6 5:6 6:3 7:3 8:2 9:3 10:3 11:4 12:4 13:4 14:4 15:4 16:5 17:6 18:8 19:9 20:7 21:3 28:8 29:10 30:9 31:8 32:6 33:8 34:10 35:19 36:15 37:9 
-0.4219617946659027 -0.4503205311508849 0.4544631927311575 0.4469272204009116 0.3728964357282948 0.3848262757041678 0.4488098416929066 0.4661501427594367 0.4373661279548404 0.4491488386032509 0.4474660950251016 0.4844554136617438 0.4537283356327202 0.4939251940961629 0.4005114292311633 0.5403344389822975 0.5083508887809702 0.460755462729692 0.4838746001129334 0.5329154717634509 0.4725015373822384 0.4689703170050972 0.541710963420842 0.5370241411943663 0.4781278581599375 0.4504194548541441 0.4738909636080393 1:5 2:5 3:6 4:5 5:4 6:5 7:5 8:5 9:5 10:4 11:5 12:7 13:8 14:12 15:12 16:12 17:4 18:3 19:3 20:3 21:3 28:4 29:4 30:6 31:9 32:8 33:9 34:8 35:7 36:21 37:21 38:21 39:3 
-0.1320391029838497 -0.139815315875616 0.1419722200736018 0.1390776476408112 0.1162961011669154 0.1195071527428404 0.1408760208707912 0.1449010366745759 0.1368795604526026 0.1408553294839177 0.1402861185586413 0.1514221228335628 0.1416257505468382 0.1547326878614304 0.1254181424121759 0.1696663518478926 0.1587571473000812 0.1435150149174534 0.1509319919529085 0.1664793682292398 0.1474906780891808 0.1460454765681818 0.1700987810197765 0.1674610562660036 0.1495002490736693 0.1412110793503341 0.1479964565656361 1:5 2:5 3:6 4:5 5:4 6:5 7:5 8:5 9:5 10:4 11:5 12:5 13:5 14:12 15:12 16:12 17:3 18:3 19:3 20:3 21:3 28:4 29:6 30:8 31:7 32:8 33:7 34:6 35:21 36:21 37:21 38:3 39:3 
-0.8227357144992573 -0.8788302488586934 0.8868799736244571 0.8719400744534259 0.7270403624410781 0.7508415862299455 0.8770200287264351 0.9094715963281935 0.8535214425637586 0.8764102989448772 0.8742931528052014 0.9445848386941854 0.8855984159638063 0.9649618102560834 0.782294857290495 1 0.9917686119289338 0.8989241534125154 0.9436433488399901 1 0.9206378778886727 0.9141370377937389 1 1 0.9324500133538025 0.8788882911784898 0.9248277393466355 1:5 2:6 3:6 4:5 5:4 6:5 7:5 8:5 9:5 10:4 11:5 12:4 13:5 14:11 15:11 16:11 17:3 18:3 19:3 20:3 21:3 23:6 24:6 28:1 29:5 30:7 31:8 32:8 33:9 34:8 35:7 36:22 37:22 38:22 39:5 
-0.4186589662104103 -0.4477814256075848 0.4514896478967569 0.4439750558636379 0.3701718565046168 0.3822140349453952 0.4460901916134713 0.4638964641170795 0.4344083115902931 0.4465394146195054 0.4448584958832424 0.4805451303354139 0.4508472249111922 0.4915349775636451 0.3981502924155085 0.5360037060344585 0.5043076584022029 0.4572606642548076 0.4804348306307738 0.5294890251587376 0.4681261253883249 0.4655148292210663 0.5382090468996482 0.5319035593458413 0.4743801251476182 0.4473459365372139 0.4703733076752871 1:5 2:5 3:6 4:6 5:4 6:5 7:4 8:5 9:5 10:4 11:5 12:5 13:5 14:12 15:12 16:12 17:3 18:3 19:3 20:3 21:3 22:1 23:3 24:1 28:4 29:6 30:8 31:7 32:7 33:7 34:7 35:21 36:21 37:22 38:6 39:4 
-0.3909151388926488 -0.4181672601990507 0.4215867932645992 0.4148858044352864 0.3457756679158741 0.3571613709069337 0.4166209002708856 0.4317927494003251 0.4056014719117786 0.4162226718860496 0.4150278851149511 0.4490323044575336 0.4208575923477318 0.4579784391422231 0.3719647399731618 0.5018353027966272 0.4717801231612648 0.427497552489071 0.4488826793095023 0.4938932628292657 0.4385278612173882 0.4349758530995961 0.5019703969281123 0.4980794531539154 0.4431565858475662 0.4184355635953543 0.4398349831764738 1:6 2:5 3:6 4:7 5:6 6:6 7:5 8:5 9:5 10:4 11:5 12:4 13:5 14:12 15:12 16:12 17:3 18:3 19:3 20:3 21:3 28:4 29:6 30:7 31:8 32:8 33:7 34:6 35:21 36:21 37:21 38:7 39:4 
-0.00141687412111359 -0.1576355860844015 0 0 0 0 0 0 0 0 0 0 0 0 0 0 0 0 0 0 0 0 0 0 0 0 0 1:5 2:5 3:6 4:5 5:4 6:5 7:5 8:5 9:5 10:4 11:5 12:4 13:5 14:10 15:10 16:10 17:3 18:3 19:3 20:3 21:3 30:4 31:6 32:7 33:7 34:8 35:7 36:6 37:21 38:21 39:21 
-0.2698436755989559 -0.2894282389708671 0.2914800334570274 0.287251322989385 0.2388560222758674 0.246477770815466 0.2878611236078409 0.2986575682830984 0.2813590965828885 0.2875352631120592 0.2876825911805269 0.3108742422539443 0.2911343981533041 0.3175143802999409 0.2571140805346758 0.3487052005302866 0.327249956528818 0.2949909692689137 0.3100609655361137 0.3422240303750231 0.3026580725981032 0.3009690530098844 0.3484819035829982 0.3443339139815379 0.3062941270220189 0.2897123835195436 0.3047879134119648 1:5 2:5 3:6 4:5 5:4 6:5 7:5 8:5 9:5 10:4 11:5 12:5 13:5 14:11 15:11 16:11 17:3 18:3 19:3 20:3 21:3 26:1 27:3 29:4 30:6 31:9 32:9 33:9 34:7 35:6 36:21 37:21 38:21 39:3 
-0.1493886560608106 -0.1585127563049165 0.1608632650395061 0.1572382704326099 0.131999473493882 0.1357163322423024 0.1584957565310502 0.1642455441952264 0.1534571820458331 0.1591076180148827 0.1577375591270962 0.1701440044766258 0.1600630369785387 0.1746103854102462 0.1417202775316503 0.1933638695274166 0.1784364788768438 0.1626689674332079 0.1707263946591748 0.1905688142454663 0.1663146456949741 0.164478307735838 0.1940775453164559 0.192109033763919 0.1686501075379502 0.1587607497256751 0.1667496718565471 1:5 2:5 3:6 4:5 5:4 6:5 7:5 8:5 9:5 10:4 11:5 12:4 13:5 14:11 15:11 16:11 17:3 18:3 19:3 20:3 21:3 29:4 30:6 31:7 32:7 33:8 34:7 35:6 36:21 37:21 38:21 39:3 
-0.6908460387363482 -0.7381262191661918 0.7445389040251355 0.7324743316571013 0.6104386504942617 0.6305073455881935 0.7363052494891908 0.7638199595144022 0.7165268082311864 0.7360314723150747 0.7334769664137547 0.7935396713506218 0.7436169747484475 0.8097556335880551 0.6565276966133107 0.8859789987991409 0.8329074524860856 0.7546514340203073 0.7926389469182875 0.873045936647056 0.7733020490829802 0.7676114861158678 0.8872556530094916 0.8786629101888644 0.7828210591305095 0.7382978526969914 0.7769225711022864 1:5 2:5 3:6 4:5 5:4 6:5 7:5 8:5 9:5 10:4 11:5 12:4 13:5 14:12 15:12 16:12 17:3 18:5 19:10 20:3 21:3 28:5 29:7 30:8 31:8 32:9 33:8 34:7 35:21 36:21 37:21 38:4 39:4 
-0.4813334312399221 -0.5144249062735154 0.5188336343793266 0.5102155148975008 0.4251078266284287 0.4392033402294394 0.5126911548148946 0.5319793325385128 0.4996498234962822 0.5131238784787125 0.5112627725275959 0.5524313971848652 0.5176586578847414 0.5639215769828199 0.4578683181962102 0.6173730191643597 0.5798631954176358 0.5257739047534823 0.552707902125818 0.6082391461789233 0.5384308803746002 0.5345471027864646 0.6187438322390501 0.6120102688554123 0.5455677089547113 0.5139140920374669 0.5406751913503598 1:6 2:6 3:7 4:6 5:5 6:5 7:5 8:6 9:6 10:5 11:6 12:6 13:6 14:11 15:11 16:11 17:3 18:3 19:3 20:3 21:3 29:4 30:6 31:9 32:11 33:9 34:11 35:7 36:21 37:21 38:21 39:3 
-0.7241738677716666 -0.7738328975441331 0.7802303238195906 0.7673070648748249 0.6399707554891115 0.660669531005398 0.771858342480787 0.8002541604049519 0.7511764704240923 0.7714277819725087 0.769238642151184 0.8312485415191389 0.7794059227442802 0.8483814719583042 0.68852249159037 0.9282017468487543 0.8729668114300023 0.7911005098824405 0.8306974171770142 0.9149435386084551 0.810523597558639 0.804630295984942 0.9299342606163473 0.9207046325775904 0.8204098864069409 0.7738528206509888 0.8136864645747673 1:5 2:5 3:6 4:5 5:4 6:5 7:5 8:5 9:5 10:5 11:5 12:6 13:7 14:12 15:12 16:12 17:4 18:11 19:3 20:3 21:3 28:6 29:7 30:8 31:9 32:10 33:9 34:8 35:21 36:21 37:21 38:4 39:4 
-0.3744281591915611 -0.4000945219505134 0.4034757692301634 0.3967979949466951 0.3309564182782478 0.3414007664672373 0.3988453179538312 0.4139769217422134 0.3881844767196244 0.3989914395881695 0.3972353744841309 0.4302759534273405 0.4022897766242579 0.4393518393207665 0.3561052151438485 0.4803310705221431 0.4520728883255737 0.4087875846955477 0.4298283739200013 0.4736743357524181 0.4189897696459861 0.4161103716543619 0.4810315522316004 0.4767624782691267 0.4242357941337654 0.4004197689431197 0.4210770209301413 1:5 2:5 3:6 4:5 5:4 6:5 7:5 8:5 9:5 10:5 11:6 12:6 13:6 14:12 15:12 16:12 17:8 18:5 19:3 20:3 21:3 28:5 29:6 30:8 31:9 32:10 33:9 34:8 35:21 36:21 37:21 38:4 39:4 
-0.436902952899039 -0.4671784634716971 0.4707969254362813 0.4633579902113604 0.3855878647197046 0.3982652411721661 0.4663155756539596 0.4835411506032377 0.4539514329405085 0.4652145127731353 0.4645637594822434 0.5016877850997532 0.4701658968963057 0.5121380083694178 0.4155143798011874 0.5614948092650875 0.5270256129444316 0.4774727462468549 0.5015391131910414 0.5533803103160573 0.4889569552524478 0.4855802609447362 0.562926216169459 0.5566322440474986 0.4950244790820603 0.4670845001427598 0.4914290794133721 1:5 2:5 3:10 4:7 5:5 6:5 7:5 8:4 9:5 10:4 11:5 12:5 13:5 14:11 15:11 16:11 17:4 18:3 19:3 20:3 21:3 28:2 29:5 30:7 31:8 32:8 33:8 34:7 35:7 36:21 37:21 38:21 39:4 
-0.6289011464756807 -1 0.6802028338795539 0.6678744290876335 0.5567266825297614 0.5747242993955742 0.6711116039699995 0.697178609015628 0.6539818923620209 0.6716131088333162 0.6693070810832586 0.7242340691573262 0.6789944925277898 0.7394929740870472 0.5996683498813137 0.8078052267851191 0.760669365150676 0.6884612881440026 0.7230866288608248 0.796651229704406 0.7061177363107108 0.7006751577854119 0.8095498353682514 0.8019994929032495 0.7149566919445572 0.6731192075735882 0.7092681788374438 1:5 2:5 3:6 4:5 5:4 6:5 7:5 8:5 9:5 10:4 11:5 12:4 13:5 14:10 15:10 16:10 17:3 18:3 19:3 20:3 21:3 30:4 31:6 32:7 33:7 34:8 35:7 36:6 37:21 38:21 39:21 
-0.5255812373711226 -0.5617888963646591 0.5664327152294578 0.5573549131363745 0.464348724207408 0.4794749855756511 0.5599906702919913 0.5810209138959329 0.5457673983453381 0.5600537923076114 0.5583434062287388 0.6036135786650811 0.5662816880471643 0.6159560401493156 0.4995874025620682 0.6738491087556197 0.6333055119273593 0.5747147316147135 0.6024715213207364 0.6639286159447167 0.5882651963347389 0.5837359174508223 0.6747007722822091 0.6680306298661903 0.5956033239860904 0.5612443554113732 0.5908125355108416 1:5 2:5 3:6 4:5 5:6 6:6 7:5 8:5 9:6 10:7 11:8 12:5 13:6 14:12 15:12 16:12 17:4 18:3 19:3 20:3 21:3 28:5 29:6 30:9 31:8 32:9 33:11 34:8 35:21 36:21 37:21 38:4 39:4 
-0.6309571451256498 -0.8304708599106908 0.6792511699350365 0.6683276513554127 0.5574747242330509 0.5752891820099669 0.6724528495644673 0.6964778353489653 0.6539815857812481 0.6721373168344356 0.6696421402045271 0.723886572262919 0.6783488529359175 0.7387856110565446 0.5994495913244166 0.8088729336333831 0.7596018052290926 0.6894211245025778 0.7232253103118367 0.796650858395284 0.705541097906496 0.7002968335202199 0.8106732488260279 0.8012286585399534 0.7140765403982394 0.6742844822062263 0.7084862974804743 1:5 2:5 3:6 4:5 5:4 6:5 7:6 8:8 9:6 10:4 11:5 12:5 13:5 14:10 15:10 16:10 17:3 18:3 19:3 20:3 21:3 30:4 31:6 32:8 33:7 34:9 35:10 36:7 37:21 38:21 39:21 
-0.3397750807240926 -0.3629237880564591 0.366040688506602 0.3600208573438134 0.3005314100057795 0.3102336866243774 0.3624269840209107 0.3753206713070424 0.3524680869822941 0.3621449128719886 0.3610480837915407 0.3903368477245719 0.3658804891809554 0.3982114132506499 0.3230353375153293 0.4392454852509048 0.4094687675910816 0.3712218915909281 0.3893997941100557 0.4317211434615345 0.3804947726236807 0.3779915885183853 0.4398361438459644 0.4346291746012523 0.3846906745755335 0.3632220996282309 0.3820093480295122 1:5 2:5 3:6 4:5 5:4 6:5 7:5 8:5 9:5 10:4 11:7 12:5 13:7 14:11 15:11 16:11 17:3 18:3 19:3 20:3 21:4 22:3 23:1 28:1 29:5 30:6 31:8 32:8 33:9 34:8 35:9 36:22 37:21 38:21 39:3 
-0.3289103713896432 -0.3648337903916117 -0.3388863250829124 0.3484291830079626 0.2886950900236381 0.2984648465152609 0.3510079034350328 0.3644169655437589 0.3417250555536084 0.3506119350452416 0.3494866688057427 0.3795880023778495 0.3548785657319423 0.3883423610134117 0.3091604788011196 0.4266618736737082 0.4002090089657896 0.3602328825479719 0.3792781657524674 0.4199448702901828 0.3698239776458888 0.3667972297225647 0.4276419617151598 0.4235119142268356 0.3750803328359955 0.3522368022775373 0.371237596720051 1:9 2:9 3:9 4:3 5:3 6:3 7:3 8:5 9:10 10:10 11:8 12:7 13:3 14:3 15:3 16:2 17:5 18:8 19:9 20:7 21:4 22:1 23:2 24:2 25:2 26:1 27:2 28:15 29:17 30:17 31:11 32:9 33:10 34:11 35:12 36:15 37:11 38:5 
-0.3953380723295115 -0.4391109470787417 -0.4079181070403618 0.4226156227761008 0.3472220996502102 0.3771822245759211 0.4225286117775885 0.4387237483498148 0.410370686792692 0.4224471713220005 0.4203419240462343 0.4569035672863363 0.4272151473562917 0.4672278966850907 0.3717039421243264 0.5127688612087994 0.4812036271833038 0.4336241475248097 0.4561278371370937 0.5063037186596611 0.4450380579680419 0.441642677342225 0.5142334660242285 0.5088620295013009 0.4500611314354418 0.423230575923789 0.4468440202446362 1:9 2:9 3:9 4:6 5:4 6:5 7:4 8:6 9:9 10:10 11:8 12:7 13:3 14:4 15:3 16:2 17:6 18:8 19:8 20:7 21:3 22:1 28:1 29:14 30:16 31:16 32:11 33:9 34:9 35:10 36:13 37:17 38:11 39:4 
-0.4564204395410536 -0.5070008577059859 -0.4700515547259472 0.4848904691262215 0.4011528647368514 0.4140613848905689 0.4874524140831853 0.5068298666961732 0.4740065629897709 0.487016588119476 0.4855405546634028 0.5273485342984081 0.4934397114378927 0.538973334486734 0.4290237822190711 0.5927619272332039 0.5550847664787618 0.5005725972894136 0.5273027543667771 0.5836946623135632 0.5138601684366575 0.5099344609640498 0.5940741020700635 0.5877893634766596 0.5205287681129699 0.4893348214507385 0.5156002677577146 1:9 2:9 3:9 4:3 5:3 6:3 7:3 8:5 9:9 10:10 11:8 12:6 13:3 14:3 15:3 16:6 17:9 18:7 19:9 20:7 21:3 28:15 29:16 30:16 31:11 32:9 33:10 34:10 35:12 36:14 37:9 38:4 39:1 
-0.03871230799041823 -0.04080550377768623 -0.03855605978611645 0.04510682254138426 0.03262086780096392 0.03145139706497028 0.04030959732899008 0.04144530118962924 0.03876964841805748 0.03893361230742884 0.03996435449532532 0.04453406347797054 0.04091404350255437 0.04453255477875689 0.03542958718698805 0.04951146502571245 0.04632870947318603 0.04123747480998681 0.04454026305228483 0.04868079172432939 0.04287808389503747 0.04153693252321664 0.04862732878936547 0.04945204354833267 0.04260428450536368 0.03967579561991018 0.04321554677151995 1:9 2:9 3:9 4:3 5:3 6:3 7:3 8:5 9:9 10:10 11:8 12:7 13:2 14:3 15:3 16:2 17:6 18:8 19:8 20:7 21:3 22:1 29:13 30:16 31:16 32:11 33:9 34:9 35:10 36:11 37:14 38:9 39:3 
-0.2990491449959523 -0.3332588080154874 -0.3093087139975611 0.3183011285557557 0.2631580078454626 0.2719416524341325 0.319866705780606 0.3329774512952859 0.3112349197571917 0.3188773076687271 0.3183535013270739 0.3465306042102414 0.3235112362587068 0.3537203275064905 0.2815108200890731 0.3888553016588277 0.3643631067682459 0.328534660176938 0.3456660415471281 0.383529345729764 0.3375642268054929 0.3344411293796092 0.3901525569358982 0.3854342108468148 0.3414500656643669 0.3213356354426464 0.3384399157643956 1:9 2:9 3:9 4:3 5:3 6:3 7:3 8:5 9:9 10:10 11:7 12:7 13:3 14:3 15:3 16:2 17:5 18:9 19:10 20:7 21:2 28:14 29:16 30:16 31:9 32:8 33:9 34:9 35:11 36:14 37:10 38:5 
-0.1637798210623771 -0.1807310399503675 -0.1682198294342708 0.1725457202298332 0.1435648285063103 0.1486474519014802 0.1741662113065462 0.1811325092906213 0.1697504688826543 0.1752438580311444 0.1738046671487052 0.1880040182767115 0.1760941588301684 0.1927363512708803 0.1534800688391791 0.2118687334494491 0.1983449969638149 0.1788656398698875 0.1880388265748096 0.2087152879884271 0.1835344287769026 0.1817308966923355 0.2124111338109181 0.2100577904486641 0.1855597970614702 0.1747016538374451 0.1844381259375178 1:9 2:9 3:9 4:3 5:3 6:3 7:3 8:5 9:9 10:12 11:8 12:9 13:5 14:3 15:3 16:2 17:5 18:7 19:9 20:7 21:3 28:14 29:17 30:17 31:10 32:9 33:10 34:10 35:11 36:14 37:9 38:4 39:1 
-0.4610465626045568 -0.5121957389705659 -0.4750366758693094 0.4897669342139682 0.4056823634292727 0.4185016515337167 0.492760539675775 0.5124199865995516 0.4794498151293658 0.4922249970118766 0.4908731318647482 0.5323023559011363 0.4976852760894983 0.5445641412492214 0.4339838046154755 0.5993732325898584 0.5614654519856205 0.5056861083034276 0.5323555623113463 0.5900318568947109 0.5181414801928108 0.5148283218955232 0.6002068421344915 0.5934747116193879 0.5251273393078354 0.4941670781722492 0.5210126515670657 1:9 2:9 3:9 4:3 5:3 6:6 7:7 8:7 9:9 10:10 11:8 12:7 13:2 14:3 15:3 16:2 17:5 18:8 19:9 20:7 21:3 28:14 29:16 30:16 31:12 32:9 33:10 34:11 35:12 36:15 37:10 38:3 39:1 
-0.2671173317843062 -0.2968198322401377 -0.2757357246427416 0.2843944954002617 0.2344805820150654 0.2436388042553339 0.2854468421171893 0.2960118928730385 0.2765115015779652 0.2857391574276507 0.2836917678262738 0.3084117334082291 0.2880419178249288 0.3154688137908601 0.251075514027468 0.3464842163555271 0.324306632443025 0.2926696577164156 0.3084264741311143 0.3417119074150118 0.299794445038802 0.2978808846281871 0.3475113102575262 0.3434609218418568 0.304479851825934 0.2861539873295216 0.3021946026135805 1:9 2:9 3:9 4:4 5:4 6:4 7:4 8:6 9:9 10:10 11:9 12:6 13:4 14:5 15:6 16:4 17:6 18:7 19:9 20:6 21:4 28:14 29:16 30:18 31:14 32:10 33:10 34:10 35:12 36:15 37:10 38:4 39:1 
-0.6746227561388924 -0.7491968692335953 -0.6957788212058045 0.7154471671997135 0.5931283573938526 0.6121287407315993 0.720672132321878 0.749085142307961 0.7007796113358761 0.7203329071513707 0.7174280595488535 0.7800670380111582 0.7286504682685332 0.7971042795862163 0.6351046027038613 0.8797499211001427 0.821173984820968 0.7398896918223866 0.7796516207410873 0.8658877730913077 0.7593166004122265 0.7533915205623409 0.8821576423590756 0.8719236405598615 0.7692331149131134 0.7235308650143542 0.7626098989450907 1:9 2:11 3:9 4:3 5:3 6:3 7:3 8:5 9:9 10:10 11:7 12:6 13:3 14:2 15:2 16:2 17:5 18:8 19:9 20:7 21:2 22:1 28:1 29:1 30:14 31:17 32:16 33:9 34:8 35:10 36:9 37:11 38:14 39:9 
-0.1504417654263578 -0.166890843634844 -0.1549267644147146 0.1589737065687164 0.1325170480093896 0.1340568355732423 0.1610989623512219 0.1678253119010665 0.1567485316117773 0.1612905569734826 0.1597543135063212 0.1732051715245642 0.1623277542063702 0.1777671984599855 0.1414721244880842 0.1958145279135695 0.1829453978723095 0.1650357662537828 0.1735031460369258 0.1921131333115497 0.1688438205112144 0.1679172756798588 0.1955009287921572 0.193015963156083 0.1714845805584236 0.1617344795015668 0.169837031725391 1:9 2:9 3:9 4:3 5:3 6:4 7:5 8:6 9:9 10:10 11:9 12:7 13:3 14:3 15:3 16:2 17:5 18:8 19:9 20:7 21:3 29:14 30:16 31:16 32:13 33:9 34:9 35:10 36:11 37:14 38:9 39:5 
-0.6701540873328108 -0.7444361373642068 -0.6907858966879049 0.720889408901672 0.588453291151886 0.6118198268823578 0.7162306790243034 0.7437652109919286 0.6960192578084307 0.7153977625075584 0.7132612238899568 0.7739792261838392 0.7234536675769383 0.7913055428108944 0.6299372070245156 0.8745639403432252 0.8147818228003527 0.7349164677789337 0.7735262137926787 0.8594572310986345 0.7538433815052529 0.7480327777902775 0.8760899379352364 0.8664418534953053 0.7632623009612646 0.7178003227477822 0.7572376409244641 1:9 2:9 3:9 4:3 5:3 6:3 7:3 8:5 9:9 10:10 11:8 12:6 13:2 14:5 15:4 16:5 17:6 18:7 19:9 20:6 21:4 28:1 29:1 30:15 31:16 32:17 33:11 34:9 35:10 36:11 37:12 38:14 39:8 
-0.7004696587707759 -0.7785811143871361 -0.722568183061262 0.7445215257387385 0.6160422649826524 0.6365760831205445 0.7484231659186487 0.7779626257191842 0.7282268177354556 0.7479584979211694 0.7454314977488332 0.8101170377109064 0.756346539220407 0.8276745597002931 0.6592196231319588 0.9102237553912291 0.8520529408192588 0.7691511485944516 0.809349178101873 0.8962183606865235 0.7885054596113847 0.7822845716962885 0.9122163119151133 0.902500288204923 0.79835525723923 0.7510376416619504 0.7919112851778146 1:9 2:9 3:9 4:3 5:4 6:6 7:4 8:5 9:9 10:10 11:8 12:6 13:6 14:8 15:4 16:2 17:5 18:7 19:9 20:7 21:3 25:1 26:3 27:1 28:15 29:17 30:17 31:10 32:9 33:10 34:11 35:13 36:18 37:13 38:4 39:1 
-0.1898266603200533 -0.2115521908372063 -0.195540492806274 0.1963049697273496 0.1669507154696138 0.168051280700892 0.2019123385125164 0.2112822550482052 0.1972762981004974 0.202820086913192 0.2024406986855135 0.219705585303439 0.2049538815406516 0.2240557608139928 0.1789962336320828 0.2468380282709646 0.2310199419162028 0.2083443403262662 0.2189427895658078 0.24231978089265 0.2133257766137154 0.2116506687697577 0.2473218308491391 0.2446675160759145 0.2171350207135646 0.2042588709209186 0.2148537039340788 1:10 2:11 3:10 4:4 5:3 6:3 7:3 8:5 9:9 10:10 11:8 12:6 13:3 14:3 15:3 16:2 17:5 18:8 19:9 20:7 21:3 28:1 29:14 30:16 31:16 32:11 33:8 34:9 35:10 36:11 37:14 38:11 39:4 
-0.3970876756786512 -0.4414258643447255 -0.4098716566327746 0.4223542687800315 0.3492600427456832 0.3603927871261188 0.4245972685659378 0.4412259987761616 0.4137698001503375 0.4238345295547488 0.4229260430795512 0.4596202458272426 0.4295522525793786 0.4696710036105347 0.3737297173519994 0.5167595738416728 0.4843803035013287 0.4360213145946458 0.4590208421346743 0.5082310254465768 0.4476787161520768 0.4443038541798841 0.5175100350363236 0.5123669802035061 0.4526674765638449 0.426354241529505 0.4494317492871796 1:9 2:10 3:9 4:3 5:3 6:3 7:3 8:5 9:10 10:11 11:8 12:7 13:6 14:6 15:6 16:4 17:6 18:9 19:9 20:7 21:3 28:14 29:17 30:18 31:12 32:10 33:11 34:12 35:12 36:14 37:10 38:5 39:2 
-0.6350267822178282 -0.705581874990008 -0.6543293992400702 0.6771511471547325 0.5581822305067399 0.5855110223472008 0.6788408441104032 0.7052111312333778 0.6599904168651295 0.6774838720370985 0.6753448917295314 0.7339393534793198 0.6858964567209065 0.7501481469695471 0.596843869831852 0.8249153136788832 0.772428284726017 0.6963896107308262 0.7332042262660047 0.812059993321101 0.7145029405620384 0.7089018059965957 0.8264435634021301 0.8175205595762511 0.7236313060107548 0.6801341168053857 0.7174190919058911 1:9 2:9 3:9 4:3 5:4 6:4 7:6 8:8 9:10 10:11 11:8 12:9 13:5 14:3 15:3 16:2 17:5 18:9 19:10 20:8 21:3 28:5 29:14 30:16 31:16 32:12 33:10 34:11 35:12 36:13 37:15 38:10 39:4 
-0.5069949608619393 -0.5626282111705097 -0.5221185267330436 0.5406448083170821 0.4452121364538366 0.4612783800884971 0.5411917454164358 0.5618392939250406 0.5265660735001401 0.5411031362304024 0.5392418503534763 0.5853972358809586 0.5472021396152832 0.5983735105015339 0.4767282002172997 0.6580858644909025 0.6160467294853322 0.5556742371571248 0.5845315297781457 0.6478571780208522 0.5696256337842986 0.5650950423320676 0.6591751024410292 0.6521651666154749 0.5776934860377267 0.5433698434614601 0.5730859734406438 1:9 2:9 3:9 4:3 5:3 6:3 7:3 8:5 9:9 10:10 11:8 12:7 13:4 14:4 15:4 16:3 17:5 18:8 19:10 20:8 21:6 22:2 23:2 28:1 29:15 30:17 31:17 32:12 33:10 34:11 35:12 36:12 37:14 38:9 39:4 
-0.2251002362318098 -0.2507551260694812 -0.2323225151926573 0.2430956339445008 0.198398581240644 0.2054920171757929 0.2419109269656445 0.250652155162717 0.2347534561565559 0.240834919402947 0.2397631605336463 0.2598962801413113 0.2432325603334122 0.2667898221504308 0.2114766768362262 0.2920183557122994 0.2735906467679867 0.2475767569358462 0.2607338567790914 0.2885785809935753 0.2542322165954357 0.251825957866352 0.2944059787991072 0.2902514591298726 0.2573557250418652 0.2415494407619666 0.2542587140849217 1:9 2:9 3:9 4:3 5:3 6:3 7:3 8:5 9:9 10:10 11:7 12:7 13:4 14:4 15:4 16:2 17:5 18:7 19:8 20:7 21:4 28:2 29:14 30:16 31:16 32:10 33:8 34:9 35:9 36:11 37:14 38:9 39:4 
-0.8184781959460604 -0.9094892161662912 -0.8434024971698465 0.8723623291688685 0.7191779995974785 0.7482161516870303 0.8741979320600733 0.9085367819719061 0.8506530202076078 0.8737475281496815 0.8706249803023934 0.9456317822796722 0.883248617053406 0.9671026297488574 0.769435010732155 1 0.9952315229081774 0.8974818018075545 0.9445523534526031 1 0.9208237917642286 0.9136420306575204 1 1 0.9327840540527079 0.8775999292290958 0.9253092709273022 1:9 2:9 3:9 4:3 5:3 6:4 7:5 8:6 9:9 10:10 11:8 12:6 13:2 14:2 15:3 16:4 17:6 18:10 19:9 20:9 21:4 22:1 23:1 24:1 25:1 26:1 27:1 28:1 29:1 30:14 31:16 32:15 33:12 34:9 35:11 36:12 37:14 38:17 39:14 
-0.1296629173862801 -0.144612732629338 -0.1333571296568798 0.1398515586800544 0.1143547458702536 0.1177177553077748 0.1391909854136859 0.1443731275587175 0.1345846159762391 0.1393013799200168 0.1385741193195227 0.1509588703406575 0.1403054581439045 0.1537688006674384 0.1222272137133434 0.1690741804758381 0.158088140936517 0.142848037772287 0.1506945212619047 0.166492647552985 0.1462695755166095 0.1452527914394966 0.1691444234930889 0.1671471559637178 0.1482547647292586 0.139455830765434 0.1470498911113439 1:9 2:10 3:9 4:3 5:3 6:3 7:3 8:5 9:9 10:10 11:10 12:7 13:4 14:3 15:3 16:2 17:5 18:8 19:8 20:7 21:3 28:12 29:16 30:16 31:10 32:9 33:10 34:11 35:11 36:14 37:10 38:4 39:1 
-0.270544085868384 -0.3020978719682229 -0.2798232171478008 0.2881619727894253 0.2383348697105918 0.2449543037462514 0.288990616794419 0.3004187954493898 0.2814299108703094 0.2899561860815905 0.2886040776136041 0.3131635522598222 0.2923247338228637 0.3196160968544896 0.2550984730500107 0.3521888965052685 0.3302227324372558 0.2972031112697351 0.3125251446920695 0.3461518526809091 0.3048118613099119 0.3034474832138195 0.3532283047981313 0.3488017441033151 0.3088821277765761 0.2907606795871189 0.3062875711751692 1:9 2:9 3:9 4:3 5:3 6:3 7:4 8:7 9:9 10:10 11:8 12:6 13:2 14:3 15:3 16:2 17:5 18:8 19:9 20:7 21:3 29:14 30:16 31:16 32:10 33:8 34:9 35:10 36:13 37:15 38:9 39:2 
-0.02220968893106699 -0.024016170438214 -0.02390468656227478 -0.02407574241656021 0.02080609171038908 0.01956205849059981 0.01988575523667241 0.02670772045012667 0.02329952964898502 0.02508925900629413 0.02651266517488168 0.02795740464105922 0.02609392293486247 0.02754900285504542 0.02171632099109793 0.03235033692698984 0.02900357625097555 0.02541848201786377 0.02732310408867356 0.03058639690565363 0.02426077229047463 0.02666158042620057 0.01602425067157174 0.02930372265035455 0.0234140023540945 0.02249872513146674 0.02742892510384404 1:4 2:3 3:3 4:3 5:3 6:2 7:3 8:4 9:7 10:9 11:10 12:7 13:5 14:5 15:6 16:5 17:6 18:10 19:9 20:7 21:3 28:1 29:2 30:10 31:13 32:10 33:11 34:12 35:11 36:11 37:14 38:11 39:8 
-0.1723580070995513 -0.1891974651784771 -0.1773274469468638 -0.1843885779310687 0.1504065571541056 0.1502290173219622 0.1781374092765112 0.1887676241604102 0.1782262455604414 0.1817710466957622 0.1809588151494742 0.1968631665329766 0.1834416008521224 0.1999699255215597 0.162016723198057 0.2199170790308321 0.2069346100446459 0.1855160312437902 0.1961612678509224 0.2174634351906348 0.1913717348644431 0.1900477171842989 0.2264295153259289 0.2199351893175941 0.1971066120672494 0.182759287465756 0.1919376548243692 1:4 2:3 3:3 4:3 5:3 6:2 7:3 8:3 9:7 10:9 11:10 12:7 13:5 14:5 15:6 16:5 17:6 18:8 19:8 20:8 21:5 28:1 29:2 30:10 31:13 32:10 33:11 34:11 35:11 36:11 37:14 38:11 39:8 
-0.7759228858703953 -0.8608243809077841 -0.7999315039138535 -0.8384385801613135 0.6840020394767968 0.7048607294469411 0.8288824596002631 0.8606159016794889 0.8061045685394933 0.8287945946561878 0.8262233328152441 0.8950126406391089 0.8373562411465584 0.9145167103914442 0.7337696214629521 1 0.9415731630781278 0.8504649406297479 0.8942612920145513 0.9885893639382834 0.8721857095012102 0.8654902855013755 1 0.9953968906619045 0.8829863585835359 0.8317010880280813 0.8754539548319856 1:7 2:4 3:3 4:3 5:3 6:2 7:3 8:3 9:7 10:8 11:10 12:7 13:6 14:6 15:7 16:9 17:7 18:8 19:8 20:7 21:3 23:2 24:6 25:2 29:3 30:10 31:16 32:13 33:13 34:15 35:13 36:12 37:15 38:12 39:9 
-0.582220298335034 -0.6466122127046159 -0.6005088312911644 -0.6294450268224069 0.5131149610533982 0.530930176686816 0.6218708066324172 0.645977861038567 0.6046246566238339 0.6211395926169402 0.6200884024148249 0.671607355962158 0.6281041195587471 0.6861995014584894 0.5509337146352392 0.7531422502837619 0.706400546449552 0.6377221863453912 0.6705907807730526 0.7418594612336431 0.65280860682626 0.6493016074777863 0.7530692713739251 0.7491607038466416 0.661803399979722 0.6283081266089539 0.6568561381126247 1:4 2:3 3:3 4:2 5:3 6:3 7:6 8:4 9:7 10:9 11:10 12:7 13:5 14:5 15:6 16:5 17:7 18:9 19:9 20:7 21:3 22:1 23:1 24:2 25:1 26:2 28:3 29:10 30:14 31:11 32:12 33:13 34:13 35:11 36:17 37:12 38:7 39:1 
-0.8278786001728119 -0.9177433446175818 -0.8529957857875962 -0.8939909275907434 0.7291202916737317 0.7516193054976522 0.8848537754640304 0.9173305595452829 0.8598155980287626 0.8834709592666995 0.880906382325285 0.9545496511415286 0.8928598129274458 0.9751046917193275 0.7828078795784846 1 1 0.906345074692161 0.9537614700446551 1 0.9301290748307913 0.9227533732022176 1 1 0.9416477385462778 0.8870061157650576 0.9340052256483744 1:4 2:3 3:3 4:3 5:3 6:3 7:3 8:12 9:7 10:10 11:11 12:7 13:6 14:6 15:6 16:6 17:6 18:8 19:8 20:6 21:3 22:3 23:1 28:2 29:5 30:10 31:12 32:12 33:10 34:12 35:13 36:15 37:16 38:12 39:9 
-0.4603084244783724 -0.5098830434198156 -0.4740956897521729 -0.510829614088676 0.4055192975032363 0.4405914509761121 0.4915370437675446 0.5106659455267561 0.4780251842069336 0.491077233933142 0.4898301989000991 0.5310123654254196 0.4966137958318165 0.542523063600537 0.4358052802881101 0.5968447296883298 0.5583300480051712 0.5044607129689294 0.5306254398365396 0.5875838296251599 0.5172856835558221 0.513534852124004 0.6014982552261192 0.597551709864781 0.5238279846434052 0.4943365392473898 0.519180815584352 1:5 2:4 3:4 4:3 5:3 6:3 7:5 8:5 9:7 10:9 11:10 12:7 13:6 14:6 15:6 16:6 17:6 18:8 19:9 20:7 21:4 22:1 23:1 24:1 25:1 26:1 27:2 28:3 29:5 30:12 31:16 32:13 33:12 34:11 35:11 36:11 37:15 38:12 39:9 
-0.3012569640620665 -0.3336479195986928 -0.3108347034909804 -0.323988031282325 0.2647976205818251 0.2730092598416888 0.319110368233045 0.3342538646136587 0.3125316852994008 0.3209651024500377 0.3204977800207363 0.3471131134646114 0.3241089697091584 0.3545351241550841 0.2839330008323583 0.3912018634627784 0.3652216483960077 0.3291307229266788 0.3466601692011167 0.3852378077845643 0.3379914808507093 0.3351701267793394 0.391952748470608 0.3863536670361393 0.3418928587469535 0.3219436701614104 0.3392377667594917 1:4 2:3 3:3 4:3 5:3 6:3 7:3 8:3 9:7 10:9 11:10 12:7 13:8 14:10 15:7 16:6 17:6 18:8 19:8 20:6 21:3 22:1 23:3 24:1 28:1 29:4 30:9 31:12 32:12 33:12 34:12 35:12 36:13 37:17 38:12 39:9 
-0.3376433833805925 -0.3750366818253187 -0.3497618198913879 -0.3643111215697347 0.2990911335261712 0.3065371516004846 0.3604437363756673 0.3753900086189629 0.351529608446326 0.3618034518574608 0.361295828930874 0.3907961364849016 0.366126649430745 0.3993931718825222 0.3202843158245602 0.4383616917772542 0.4112255580561519 0.3713019164567669 0.3903460815337792 0.4321517568310893 0.3798886455405192 0.3769794245339579 0.4370123660831611 0.4358567100012646 0.3849634781627903 0.3631557870863052 0.3824002995822486 1:4 2:3 3:3 4:3 5:3 6:2 7:3 8:3 9:7 10:9 11:10 12:11 13:6 14:6 15:6 16:6 17:6 18:7 19:8 20:8 21:3 28:4 29:9 30:13 31:11 32:12 33:12 34:12 35:11 36:14 37:12 38:7 
-0.3862206323844875 -0.4280349147281627 -0.3983134418204469 -0.4171526490360001 0.3404264285981112 0.3499656379167244 0.4104649507472828 0.4281708411344326 0.4012152763081485 0.41229788279821 0.4108401766115615 0.4456552213573859 0.4165271546034087 0.4547665034545205 0.3651450243204927 0.4993017147329535 0.4687481177866538 0.4229465451370868 0.4455564639620641 0.4921323505288471 0.4337093447940236 0.4310127135777212 0.5076543930080784 0.5008807978416551 0.4399532148022607 0.4153517445150354 0.4360596672170038 1:4 2:3 3:3 4:3 5:3 6:2 7:3 8:3 9:7 10:9 11:10 12:7 13:6 14:6 15:7 16:11 17:6 18:8 19:8 20:6 21:2 28:1 29:3 30:9 31:12 32:12 33:11 34:12 35:12 36:12 37:14 38:11 39:8 
-0.5316179884466438 -0.58924427427635 -0.5419812848167027 -0.574842671743693 0.4632709628746615 0.5006868375792812 0.573521555283605 0.5830806512383874 0.5459063022288752 0.5618074581109591 0.5594066415411323 0.6063877695929872 0.5671739414483238 0.6198271555671174 0.4969449091969565 0.6804428024497222 0.6382497175497819 0.5759091686903 0.605777687271897 0.6701399729493459 0.589121427969176 0.5860039918178115 0.6758585234587503 0.6727301746594211 0.5974454101831247 0.5617356009434443 0.593674136684773 1:3 2:5 3:5 4:7 5:4 6:4 7:3 8:3 9:7 10:9 11:10 12:7 13:6 14:6 15:6 16:6 17:6 18:7 19:8 20:8 21:3 28:4 29:10 30:14 31:13 32:12 33:11 34:12 35:11 36:15 37:12 38:8 39:1 
-0.2509896013059774 -0.2806995185584675 -0.2565792797649877 -0.272390499498714 0.2203746740542547 0.2311294048067709 0.2750743361361469 0.2771223996221593 0.2614651560041329 0.2679399656717888 0.2656765765155111 0.2881575479095677 0.2698403175911103 0.2961725520503375 0.2366149213951054 0.3214592332231382 0.3030759557077921 0.2759961082824132 0.2888340897758011 0.3170922262327119 0.2877427574857117 0.2786404651507394 0.3416540839704376 0.3173696726010467 0.2867767613460095 0.2711089949543681 0.2827298558949827 1:4 2:3 3:3 4:3 5:3 6:2 7:3 8:3 9:7 10:9 11:10 12:7 13:5 14:5 15:6 16:5 17:6 18:8 19:8 20:6 21:3 29:1 30:9 31:12 32:10 33:11 34:11 35:11 36:11 37:14 38:11 39:8 
-0.4334776791387571 -0.4813825884179486 -0.4472406215339277 -0.4687731175573414 0.3825738456142933 0.3938955245795298 0.4631479838802969 0.4812163910826408 0.4513171405109592 0.463909214503022 0.4616469230048685 0.5007089736219987 0.4688494512791879 0.512208761607046 0.4106367390517565 0.5610480024765028 0.5264777376542739 0.4759828785881392 0.5006116775807983 0.5520487476845114 0.4882777831923531 0.4839058574647704 0.5647545101223208 0.5602187152271332 0.4943548203342333 0.4649943531632707 0.4899387038549791 1:4 2:3 3:3 4:3 5:3 6:2 7:3 8:3 9:7 10:9 11:10 12:7 13:7 14:12 15:6 16:6 17:6 18:8 19:8 20:6 21:3 22:1 28:1 29:4 30:9 31:12 32:12 33:12 34:12 35:12 36:12 37:14 38:11 39:9 
-0.09246017470569969 -0.1028900871947318 -0.09568390852376539 -0.1002331672001494 0.08137360958799889 0.08053901608233704 0.1002540765738281 0.1025033805787087 0.09603683885490999 0.09868353141717608 0.09890137998439442 0.1062083536645307 0.1003750315831878 0.1094912248505938 0.08677494093134586 0.1211468029804506 0.1126848536876971 0.1015195811818029 0.1070011495017882 0.1184511577356816 0.1045044967603059 0.103224912498131 0.1294499530621196 0.1245049906692807 0.1074292584167216 0.09994236051822379 0.1046703267926114 1:4 2:3 3:3 4:3 5:3 6:2 7:3 8:4 9:10 10:10 11:10 12:7 13:6 14:5 15:6 16:6 17:6 18:8 19:8 20:6 21:3 28:1 29:5 30:10 31:12 32:11 33:10 34:11 35:11 36:12 37:14 38:11 39:8 
-0.2814212214060413 -0.3117823386274114 -0.2881112312995667 -0.304939441122235 0.2460482025248378 0.2532977220415491 0.2970346417737695 0.3115784025422473 0.2909575443130189 0.2992663736218591 0.2986399537844029 0.322963102640186 0.3021180349920076 0.3298511358589594 0.2651910376330689 0.3623967052509285 0.339519131061305 0.3069396699978614 0.3223877531606574 0.3575764867502589 0.3152009090377179 0.3119874099055899 0.3576437653629281 0.3608711463748605 0.3189880697088436 0.2980548390205117 0.3160514054456194 1:4 2:3 3:3 4:3 5:3 6:2 7:3 8:3 9:7 10:9 11:10 12:7 13:5 14:5 15:6 16:5 17:6 18:9 19:9 20:10 21:3 26:1 28:2 29:10 30:13 31:10 32:11 33:11 34:11 35:11 36:14 37:12 38:9 39:2 
-0.1436210743210471 -0.1587359858780139 -0.1470912480387657 -0.1532283606472682 0.1262733439064231 0.1245265186885575 0.1541191725593038 0.1596924948000676 0.1491335120414004 0.1538233799705221 0.152026775057705 0.1652387632604536 0.1545161725369284 0.1683134979204384 0.1356147975681236 0.1849896345725263 0.1735275290872591 0.1575183089089986 0.1638649743168797 0.1829004453541499 0.1620521512705339 0.1600189347686752 0.2084072789479326 0.1865931331077458 0.1655911322191573 0.1575936490130126 0.1612983460292919 1:4 2:3 3:3 4:3 5:3 6:4 7:3 8:3 9:7 10:9 11:10 12:7 13:6 14:6 15:6 16:6 17:6 18:6 19:8 20:7 21:3 22:1 23:1 28:4 29:10 30:13 31:12 32:10 33:11 34:12 35:11 36:14 37:11 38:7 
-0.3345705709443304 -0.372312079349191 -0.33820496197918 -0.3574230833227688 0.2894528856689018 0.3062248378937398 0.3619295060508503 0.3637366949541822 0.3403927971049335 0.3498124206569224 0.3487316536696205 0.3789534160751532 0.3541771019087124 0.3865372649443357 0.3100026485966276 0.42413707265735 0.396960831813962 0.3600377847884927 0.3787976623760167 0.4177059844758831 0.3681685824659998 0.3652497025662418 0.4227852821042092 0.4254482666488774 0.3731500158454991 0.3507473490741237 0.3706947766813403 1:5 2:4 3:5 4:4 5:3 6:4 7:4 8:4 9:7 10:8 11:10 12:7 13:6 14:6 15:7 16:6 17:6 18:8 19:8 20:7 21:4 28:2 29:3 30:8 31:13 32:11 33:11 34:11 35:12 36:12 37:15 38:13 39:12 
-0.5056499408166794 -0.561006740767876 -0.5208907156889134 -0.5440156775287651 0.4449501477914502 0.457318288268068 0.5400046404934595 0.560063893579326 0.5254254685980171 0.5399536992026537 0.5376829081341581 0.5828831927447615 0.5451673641560741 0.5953760349972868 0.4775741513816401 0.6534220086432608 0.6129011712745012 0.5540135859629898 0.5823015499208601 0.6439236468150207 0.5675207052801844 0.5630019826321055 0.6567414997078922 0.6488865542630501 0.574925784452647 0.5429675420041566 0.5705318536721644 1:4 2:3 3:3 4:4 5:4 6:3 7:4 8:3 9:7 10:9 11:10 12:9 13:7 14:6 15:6 16:6 17:6 18:8 19:8 20:6 21:2 24:1 25:3 26:2 27:3 28:2 29:5 30:11 31:14 32:11 33:10 34:12 35:14 36:14 37:15 38:11 39:8 
-0.7002125449786822 -0.7802613737573204 -0.7211378605034955 -0.7574921120718713 0.6162635335389113 0.6381652511386552 0.748098789947218 0.7758699013965464 0.726300212975226 0.7469260957337347 0.7443910940540933 0.8067525560008771 0.7545277796207829 0.8240602631472945 0.6613673240644792 0.9049438735977751 0.8484335948170438 0.7662544692121496 0.8055664128988533 0.8912066798584715 0.7856406272351427 0.7796930542450138 0.9064896221562269 0.8987765921113356 0.7957268526742929 0.7483263284213553 0.7891797315346188 1:4 2:4 3:4 4:4 5:4 6:3 7:4 8:4 9:8 10:9 11:10 12:7 13:6 14:6 15:6 16:6 17:6 18:8 19:8 20:6 21:3 28:3 29:9 30:12 31:11 32:10 33:11 34:11 35:12 36:14 37:19 38:8 
-0.2913250739650188 -0.3254060146720656 -0.3009621186806691 -0.3149836226466362 0.2575132308962066 0.2652687020836708 0.3118430304955865 0.3225224200936007 0.3032017761138531 0.3112866733722471 0.3099961519404656 0.336472185561171 0.3144027668464435 0.344215262572842 0.2750638389490656 0.3768918107932589 0.3538966377217958 0.3194702225208746 0.3360622043636004 0.371254899400118 0.3283262680661969 0.3251171714107087 0.3921298451758538 0.3720451307786362 0.334013289308204 0.3129358498828396 0.3290494113665866 1:5 2:3 3:3 4:3 5:3 6:2 7:3 8:3 9:7 10:9 11:10 12:7 13:5 14:5 15:6 16:5 17:6 18:8 19:8 20:6 21:3 28:1 29:9 30:12 31:10 32:11 33:11 34:11 35:11 36:14 37:11 38:9 
-0.1484773108327627 -0.1644998846346432 -0.1540651795667514 -0.1597979300770003 0.131944924346609 0.1332944204130284 0.1614953661929641 0.1661053695320716 0.1554596594596376 0.1602948752844101 0.1600860801006691 0.1722128696489055 0.1616841685470247 0.1763894164937888 0.1424269002576108 0.192481254027515 0.1825797582671791 0.1635344954718818 0.1719582365856652 0.1900808813722627 0.1673097268013197 0.1674779387282368 0.1894121846355009 0.190896561311368 0.1706408696036975 0.1596505334608734 0.1689434325085158 1:4 2:3 3:3 4:3 5:3 6:6 7:4 8:3 9:8 10:8 11:10 12:7 13:6 14:6 15:6 16:6 17:6 18:8 19:8 20:6 21:3 29:3 30:8 31:12 32:11 33:11 34:11 35:12 36:12 37:15 38:12 39:10 
-0 -0 -0 -0 0 0 0 0 0 0 0 0 0 0 0 0 0 0 0 0 0 0 0.005165978672495691 0 0 0.003044079727085312 0 1:4 2:3 3:3 4:3 5:3 6:2 7:3 8:3 9:7 10:9 11:10 12:7 13:6 14:6 15:6 16:6 17:6 18:8 19:8 20:7 21:3 22:3 23:1 29:3 30:9 31:13 32:12 33:13 34:12 35:11 36:11 37:14 38:11 39:8 
-0.06146081857509429 -0.06711585043251846 -0.06425350578750667 -0.06910864440827863 0.054490893342603 0.05547902954506115 0.06765488045929523 0.06849216605826487 0.06568857994089712 0.06562679859601868 0.06611208996342634 0.07183729046344843 0.06707531064906656 0.07325211388406801 0.05895286516401402 0.08102998149873639 0.07528764310104014 0.0681060130112731 0.07335335022591455 0.07867228933768028 0.07520452410919251 0.0700575050070881 0.09863586803407226 0.08408627384509816 0.07162259855700046 0.07098405353392007 0.07088296603657034 1:4 2:3 3:3 4:3 5:3 6:2 7:3 8:5 9:9 10:9 11:10 12:7 13:6 14:6 15:6 16:6 17:6 18:7 19:8 20:7 21:3 28:4 29:10 30:13 31:11 32:11 33:12 34:12 35:11 36:14 37:11 38:7 
-0.01903067282625283 -0.02247245877401005 -0.02115031808581214 -0.02196027409882284 0.01814589947913806 0.02451366935505429 0.02698722545230806 0.02293468613623516 0.0212883652100049 0.02218424454645246 0.0212087939849931 0.02333458924536163 0.02153577343707337 0.02352069011386172 0.01958926727322955 0.03654173047167607 0.02550002091830605 0.02237851986672932 0.02284871691289646 0.03399995812331007 0.02235658214399929 0.02292205846362416 0.03845435496257283 0.03578325879868037 0.022860007021089 0.02152380756586898 0.02218487850547677 1:4 2:3 3:3 4:4 5:5 6:2 7:5 8:6 9:8 10:9 11:10 12:7 13:6 14:6 15:6 16:6 17:6 18:8 19:8 20:6 21:3 29:3 30:10 31:13 32:12 33:10 34:11 35:12 36:13 37:15 38:12 39:10 
-0.02523141218563546 -0.02672833709089725 -0.02546927785734235 -0.02661481440903663 -0.02624997000545325 0.02267340063147745 0.02599982072921673 0.02674785089242817 0.02585474714480647 0.02533110937352597 0.02593689606626147 0.02887936845158833 0.02608007699621885 0.02857607889007652 0.02345432501417527 0.03008355891138767 0.03016971972089248 0.02745016105715048 0.02836380582327615 0.0307358339896816 0.02778453921815694 0.02705251438590524 0.02880081950187057 0.03035364364980477 0.02808661615460269 0.02624482488438722 0.02732569155903353 1:11 2:10 3:10 4:3 5:2 6:3 7:3 8:3 9:3 10:3 11:3 12:3 13:3 14:4 15:3 16:3 17:3 18:3 19:4 20:3 21:3 29:3 30:5 31:9 32:11 33:12 34:13 35:11 36:10 37:7 38:4 39:1 
-0.3583453018963482 -0.3907744548071626 -0.367200539886907 -0.3822081344695885 -0.3768024960762066 0.3305692637968772 0.3775598976572315 0.3906959551685189 0.3698197498334393 0.3779156477238585 0.377092437976604 0.4048417586328263 0.381404093619674 0.4116917810822863 0.343961355721128 0.4588170301560673 0.4268510498276344 0.3859668092596417 0.4038232353927206 0.4511799944701163 0.3944716965160246 0.3929988536802335 0.4597693043837368 0.4542130679944549 0.3994920922223096 0.3787445195485224 0.39698899705716 1:11 2:10 3:10 4:4 5:2 6:3 7:3 8:3 9:3 10:4 11:3 12:3 13:3 14:3 15:3 16:3 17:4 18:5 19:5 20:5 21:3 22:2 23:1 28:1 29:4 30:6 31:8 32:11 33:13 34:13 35:12 36:11 37:8 38:5 39:4 
-0.4350848842982663 -0.474560787581284 -0.4461054810921691 -0.4637940566077742 -0.4571235757659813 0.401285480069327 0.4596890325171075 0.474311880496739 0.448462630490425 0.4599510186800553 0.4580244682471387 0.4898666783660545 0.4632197075633862 0.499418488718118 0.418011293432421 0.5420641837672933 0.5116819446012116 0.4690278390377265 0.4896735382071083 0.5347259158235462 0.4789392052319348 0.4757337502958056 0.5432557422115137 0.5381306931546603 0.4841458731658725 0.4605513668420664 0.4814609571405992 1:11 2:10 3:10 4:3 5:2 6:3 7:3 8:3 9:3 10:3 11:3 12:3 13:3 14:3 15:3 16:3 17:3 18:3 19:3 20:3 21:3 24:4 29:3 30:5 31:8 32:11 33:12 34:12 35:11 36:11 37:8 38:5 39:2 
-0.2910172910161379 -0.3234679707778208 -0.2980531061351041 -0.3109105698001741 -0.3056784510406007 0.2690708670502773 0.3067307441626034 0.3227093634805269 0.3004223878217626 0.3072080782227025 0.3064467807419624 0.3477643320277318 0.3099743486413444 0.362367555108725 0.2803555980527805 0.4249269351914043 0.3817476003045394 0.3154115285904331 0.3479997105817027 0.4143441190903098 0.3317139787428671 0.3264683805728754 0.4263048602688452 0.4192277015659323 0.3393160657517383 0.308409557307655 0.3343805020438996 1:11 2:10 3:10 4:3 5:2 6:3 7:3 8:3 9:3 10:3 11:3 12:3 13:3 14:3 15:3 16:5 17:8 18:5 19:4 20:3 21:4 28:4 29:7 30:8 31:11 32:13 33:13 34:12 35:11 36:8 37:5 38:2 39:1 
-0.5615948910416397 -0.6128179857997299 -0.5756027686431124 -0.5989834730980304 -0.5906199100182511 0.5185652320877391 0.5929488532264449 0.6124487659512686 0.5797638057351371 0.593707323063825 0.591285826741456 0.6331276814711506 0.5983833600961866 0.6446909186380448 0.5411295143737963 0.6960082783893937 0.6606431031013597 0.6058096887639085 0.6327734771574359 0.6874891257477574 0.6192477379938464 0.6152507336277683 0.6975209345871231 0.6921087775222273 0.6251898360195608 0.5948781410960496 0.6209099011772943 1:11 2:10 3:10 4:3 5:2 6:3 7:3 8:3 9:3 10:3 11:3 12:7 13:7 14:4 15:3 16:3 17:3 18:3 19:3 20:3 21:3 28:1 29:4 30:6 31:9 32:12 33:12 34:12 35:11 36:11 37:8 38:5 39:2 
-0.3753872953614923 -0.4089682324161077 -0.3855824827716081 -0.4001908140579632 -0.3953041222969205 0.346808816867653 0.3976325405487868 0.4085476686649981 0.3874715166612275 0.3971739619826797 0.396076217921561 0.4206165907793761 0.4009372414477395 0.4257731604521146 0.361523776667277 0.4525886055733862 0.4342928404736287 0.405328582710877 0.4190938814420161 0.4492119629636245 0.4117897035964393 0.4090120644725934 0.452408303401353 0.4501031624150867 0.4157472271490916 0.3972066727979862 0.4134241621968278 1:11 2:10 3:10 4:3 5:2 6:3 7:3 8:3 9:3 10:3 11:3 12:3 13:3 14:3 15:3 16:3 17:3 18:4 19:5 20:3 21:3 28:4 29:7 30:8 31:11 32:12 33:12 34:11 35:10 36:7 37:4 38:1 
-0.3801216356407612 -0.4143271183293766 -0.3896685152612241 -0.4054480423914493 -0.3990157292586076 0.3505753949328718 0.4036781823984197 0.413916553428803 0.3919413667580433 0.4011413332482158 0.4001827153007469 0.4277493939004891 0.404513769369044 0.4363030685803608 0.3649731554033142 0.4812590005099029 0.4500742067666786 0.4106611965992435 0.4284383139255566 0.4738166410965574 0.4187227961041062 0.4161494257014259 0.4827047237800773 0.4767624784026078 0.423275408419811 0.4020472123616657 0.4209596048793668 1:10 2:10 3:10 4:3 5:2 6:3 7:3 8:3 9:4 10:4 11:4 12:6 13:5 14:3 15:3 16:3 17:3 18:3 19:3 20:3 21:3 28:1 29:1 30:4 31:6 32:9 33:12 34:12 35:12 36:11 37:10 38:8 39:5 
-0.9295135643394323 -1 -0.9528493720912342 -0.9909335471879489 -0.9769898192786136 0.8578790334573048 0.9815967925403435 1 0.9590665228032609 0.9812482582421737 0.979072184229873 1 0.9895655636208093 1 0.8940990551255404 1 1 1 1 1 1 1 1 1 1 0.9836762911411481 1 1:11 2:10 3:10 4:3 5:2 6:3 7:3 8:3 9:3 10:3 11:3 12:3 13:3 14:3 15:3 16:3 17:12 18:5 19:5 20:5 21:6 28:5 29:7 30:8 31:11 32:12 33:14 34:13 35:12 36:9 37:6 38:3 39:2 
-0.008283718484087911 -0.009454644022034367 -0.008512162441023303 -0.008819051464885264 -0.008106534581248211 0.008401141074804582 0.009243921928036121 0.009109138438487662 0.008588227020660248 0.009580086198947889 0.008987776053892862 0.009007990699551476 0.009487988604886635 0.009925417200799147 0.009227452840089632 0.006110403988529672 0.007870270130900735 0.008915582510659267 0.009490273730991577 0.006209494496745798 0.009727560336787709 0.009125478860852488 0.007176172647299222 0.006445326808423003 0.009457514509241901 0.008929522735375898 0.009324869042119021 1:11 2:10 3:10 4:3 5:2 6:3 7:3 8:3 9:3 10:3 11:3 12:3 13:3 14:4 15:3 16:3 17:3 18:4 19:4 20:3 21:3 29:3 30:7 31:8 32:11 33:12 34:12 35:12 36:10 37:7 38:4 39:1 
-0.2213300277749559 -0.240922233936747 -0.2275777310267686 -0.2360762507870237 -0.2332970294762482 0.2046546162411202 0.2338802199416836 0.2408291201678292 0.2288229907479514 0.2332301427174395 0.2331975571089696 0.2481698304731089 0.2356470514893363 0.2519904846062038 0.212673342279013 0.2709032342861661 0.2583607217631299 0.2389597722066691 0.2485372648674941 0.2677998227268658 0.2430668506616565 0.2419163937197932 0.2713266650660492 0.268051384305638 0.2464753159856221 0.2341971058499165 0.2449030700214013 1:11 2:10 3:10 4:3 5:2 6:3 7:3 8:3 9:3 10:3 11:2 12:4 13:4 14:3 15:4 16:4 17:3 18:3 19:4 20:3 21:3 22:1 23:1 24:1 25:1 26:1 27:1 28:1 29:7 30:7 31:10 32:13 33:11 34:12 35:11 36:10 37:7 38:4 39:1 
-0.6410756601452404 -0.6991433267624636 -0.6574609141969845 -0.6829961242122427 -0.6743682394456391 0.5921510126949374 0.6758823858727468 0.6990051913923608 0.6617675879083638 0.6768493256155539 0.6747995595254564 0.7227033631873298 0.6829605454410326 0.7351770651035612 0.6173995335689089 0.7949260922406842 0.7547794290943191 0.6911735444026705 0.7217071017584695 0.7851444594204149 0.7062612231910413 0.7020802257488807 0.7957358105185286 0.7899008449263574 0.7141944665213183 0.6789125083605708 0.708839806014578 1:10 2:10 3:10 4:3 5:2 6:3 7:3 8:3 9:3 10:3 11:3 12:3 13:3 14:3 15:3 16:3 17:3 18:3 19:3 20:3 21:3 30:3 31:5 32:8 33:11 34:12 35:12 36:11 37:10 38:7 39:4 
-0.2136833259354096 -0.2322813880872426 -0.2186711754185824 -0.2269769364021502 -0.2239540713051883 0.1965739472948841 0.2244260241072464 0.2317724379889717 0.2195566589204948 0.2245934956712612 0.2239857642868235 0.2388923470263664 0.2264200317498876 0.2427511321430045 0.2042873054145544 0.2619370778869717 0.2490649498134318 0.2292861392292334 0.2387381051804008 0.2579031383264503 0.2336057003817741 0.2347089926602314 0.263428864607984 0.2602267287550836 0.2361042599817378 0.2248798677416405 0.2342089289353964 1:11 2:10 3:10 4:3 5:2 6:3 7:3 8:3 9:3 10:3 11:3 12:3 13:3 14:4 15:3 16:3 17:3 18:3 19:3 20:3 21:3 28:3 29:5 30:8 31:11 32:12 33:12 34:12 35:10 36:7 37:4 38:1 
-0.3673058395806035 -0.3997792318212658 -0.376434353066597 -0.3919491883754607 -0.3862304917124673 0.3386782587971533 0.3880291268068285 0.4003135304221473 0.37965338624696 0.387799232514931 0.3867748653282096 0.4129343276387418 0.3907674494433078 0.4211357064395304 0.3535959081701275 0.4537055750056098 0.4311908662984976 0.395957618887035 0.4131259313315429 0.4485905946246806 0.4050239917678507 0.4010147345671021 0.4546256717558714 0.4511459384073611 0.4091158968232778 0.3898279123420343 0.4062793282452672 1:11 2:10 3:10 4:3 5:2 6:3 7:3 8:3 9:3 10:4 11:5 12:5 13:3 14:4 15:5 16:3 17:3 18:3 19:3 20:3 21:3 28:4 29:6 30:9 31:11 32:12 33:12 34:11 35:11 36:8 37:5 38:2 39:1 
-0.8707631991486416 -0.9485998513486474 -0.8922343613644135 -0.9272297344214724 -0.9143627497642258 0.8033255127132269 0.9194601633237685 0.9485899128129912 0.8983431130040145 0.9188949600666946 0.9166754509602899 0.9804310119777445 0.9267610250875337 0.9985019864555107 0.8371098545089101 1 1 0.9386006086291732 0.9792957589920621 1 0.9593227578369261 0.9528086679282958 1 1 0.9688717529632664 0.9212746897455447 0.9622383142373118 1:10 2:10 3:10 4:4 5:3 6:4 7:4 8:4 9:4 10:4 11:4 12:4 13:3 14:3 15:3 16:3 17:3 18:3 19:3 20:3 21:6 22:4 23:4 24:1 28:2 29:3 30:5 31:7 32:10 33:14 34:14 35:13 36:12 37:11 38:8 39:5 
-0.7347377354860348 -0.8006596349781471 -0.7527567348592119 -0.7834582494551966 -0.7718573848784027 0.6781148602125139 0.776008417844786 0.8006395522682839 0.7578425113426902 0.7756431420279857 0.7734164574741249 0.8277901102016454 0.7821094471327067 0.8428564350844572 0.7066576141702156 0.9119219671381451 0.8640494206937824 0.7920626267795244 0.8264142980494716 0.9004195936050866 0.8094133858682517 0.8042917267644067 0.9129526140127194 0.9057536021695185 0.8183163921108129 0.7776516937305876 0.8123714793934785 1:11 2:10 3:10 4:3 5:4 6:4 7:3 8:3 9:3 10:3 11:3 12:3 13:3 14:3 15:3 16:3 17:3 18:3 19:3 20:3 21:4 22:4 23:3 28:4 29:6 30:9 31:11 32:12 33:12 34:11 35:10 36:8 37:9 38:3 
-0.06245299462513766 -0.06786035646678469 -0.06517559125203652 -0.06555054456909053 -0.06538529056526905 -0.05591819535132932 0.06524740437414266 0.0692672971678271 0.06454371341731591 0.06754098188816846 0.06614261175185412 0.0694361077968038 0.06760626213311272 0.07152320692092851 0.06045245798400256 0.07767154023643853 0.07412871600120546 0.06731611461119108 0.07053486581729769 0.07571307357732127 0.06949194153853328 0.06872566164962059 0.07855693159715245 0.07765955141960253 0.06895324273371994 0.06651665223949255 0.06951200237574567 1:3 2:7 3:9 4:7 5:6 6:6 7:5 8:6 9:8 10:6 11:7 12:7 13:6 14:6 15:6 16:6 17:6 18:8 19:9 20:8 21:4 22:1 23:1 28:1 29:5 30:15 31:19 32:14 33:11 34:9 35:9 36:10 37:19 38:15 39:11 
-0.1812490059942199 -0.1997709588260574 -0.1838377675283817 -0.1977313437106308 -0.2012653833454687 -0.1616714589348595 0.1907650683543518 0.1961136386776919 0.1851547975161415 0.1892211470716204 0.1894649782258792 0.203116934536501 0.1922135816491019 0.2065880081144802 0.1735988863438762 0.2301468420315692 0.2137858269536876 0.1946022359177129 0.2022058541980861 0.2244901294392159 0.1991496309671825 0.1968378659699632 0.2293157134273063 0.2270909431758301 0.2012593294768312 0.191389982793336 0.1995379425611976 1:3 2:7 3:9 4:7 5:6 6:6 7:5 8:6 9:8 10:6 11:7 12:7 13:6 14:6 15:6 16:6 17:6 18:8 19:9 20:7 21:4 27:1 28:4 29:14 30:18 31:15 32:11 33:9 34:9 35:10 36:20 37:15 38:11 
-0.5464907146075029 -0.5971380977286096 -0.5615246781019632 -0.5845743525650779 -0.5760214573673488 -0.4895225039361083 0.5782936196256472 0.5972495157984451 0.5646619618099017 0.5780447502010005 0.576838246028278 0.6179439240249212 0.5835590397934317 0.6283600683843277 0.5254777196453305 0.6812609964853503 0.6447698959506812 0.5912059868433317 0.6168305322007712 0.6730328057911051 0.6032620611104236 0.5997268144072792 0.6832592415402319 0.6766279287431743 0.6105144375359595 0.5800715359610306 0.6056402301415174 1:3 2:8 3:11 4:8 5:7 6:7 7:9 8:8 9:8 10:6 11:8 12:7 13:6 14:7 15:6 16:6 17:6 18:8 19:9 20:7 21:4 28:4 29:7 30:14 31:18 32:17 33:12 34:10 35:10 36:11 37:19 38:16 39:11 
-0.3739075124937808 -0.4081353059358205 -0.3824505684593124 -0.3988920929918027 -0.3917929343942333 -0.3345558677869832 0.3957457025005117 0.4086393843412542 0.386024998661241 0.3948338496723756 0.3941279726787505 0.4213188715694368 0.3986440826371548 0.4303190164236546 0.3590791962755018 0.4665967280006844 0.4413989621813945 0.4034649013472224 0.4217672610302665 0.4587185111951182 0.4131680114277233 0.4102165960878044 0.4660902731780772 0.4613665590882015 0.4170413885798644 0.3963380732926207 0.4148869260142091 1:3 2:9 3:11 4:9 5:9 6:7 7:7 8:7 9:8 10:6 11:7 12:7 13:6 14:6 15:6 16:6 17:6 18:8 19:9 20:7 21:4 28:2 29:9 30:14 31:18 32:16 33:12 34:10 35:10 36:11 37:19 38:15 39:12 
-0.4277457709062077 -0.4674807591219633 -0.4385596051820506 -0.4554268587283188 -0.4568807712649665 -0.3830646303669424 0.4524328102591161 0.4673021427069239 0.4413666250391943 0.4522485671097381 0.450716642860912 0.4829986477388882 0.4561681411452303 0.492516027298174 0.4110453458579931 0.5344989653188641 0.5051446426541817 0.4630044253324748 0.4835261153504838 0.5277818850832707 0.4723025807708218 0.4695067693391548 0.5358658741849032 0.5300599522425981 0.4771143477678714 0.4535364355045712 0.4745296325181694 1:3 2:7 3:9 4:7 5:7 6:6 7:6 8:6 9:8 10:6 11:8 12:7 13:6 14:8 15:9 16:7 17:6 18:8 19:9 20:7 21:4 28:6 29:14 30:18 31:16 32:11 33:10 34:12 35:11 36:19 37:16 38:11 
-0.1082803214624162 -0.1203332321476188 -0.112687826978607 -0.1018037116307406 -0.1075322826296015 -0.09723010345497117 0.1159529412479382 0.1181142626923969 0.1122780968311457 0.1135379626357832 0.1139951639629136 0.1213739732644429 0.113979327652713 0.1263375924593982 0.1034547758680917 0.1360958691939673 0.1262378112578874 0.1183648185936048 0.1213096854156507 0.1324172293477233 0.1172319895494359 0.120102561956807 0.1392506155266409 0.1352325030420882 0.1207342253555829 0.1154750599387723 0.1196516450862396 1:2 2:7 3:9 4:7 5:7 6:6 7:5 8:6 9:8 10:6 11:7 12:7 13:6 14:7 15:6 16:6 17:6 18:8 19:9 20:7 21:4 29:5 30:14 31:18 32:15 33:10 34:9 35:9 36:11 37:19 38:15 39:11 
-0.02327027807736732 -0.02218510179897624 -0.01914122604104345 -0.04440433311113238 -0.03185154814447164 -0.01885729124656104 0.02151169005017982 0.02237581953707397 0.02049696978074309 0.02235706525582701 0.02374803238554302 0.02618412305040732 0.02419951098223652 0.02323725506226539 0.02025884372728581 0.02494816246294537 0.02644367693662603 0.02176004941441077 0.02500648394107867 0.02703294263310027 0.02634838193070215 0.02155296945235765 0.02139167371883629 0.02459159004157631 0.02436897955716899 0.02111190815954862 0.02424032883922278 1:3 2:7 3:9 4:7 5:6 6:6 7:5 8:6 9:8 10:6 11:7 12:7 13:6 14:6 15:6 16:6 17:6 18:8 19:9 20:7 21:4 29:4 30:14 31:18 32:15 33:11 34:9 35:9 36:10 37:19 38:15 39:11 
-0.475636559965058 -0.5198483410662004 -0.4880868689671091 -0.5072366200702705 -0.5123386710473956 -0.4259200808881148 0.504405378402867 0.5197668444735336 0.4918238776190531 0.5029007838274853 0.500939956320421 0.5362999115016727 0.5067130471634309 0.5475886676270612 0.4575089984197012 0.5931610860316958 0.5608043063172925 0.5142236566028399 0.5362992863005287 0.5853381266515052 0.5241384770680625 0.5223041721872453 0.5940936021337941 0.5884120358888096 0.5309994196358864 0.5053119220111105 0.5271031708389147 1:3 2:7 3:9 4:7 5:6 6:6 7:5 8:6 9:8 10:6 11:7 12:7 13:6 14:6 15:6 16:7 17:7 18:8 19:9 20:7 21:3 22:1 29:4 30:14 31:18 32:14 33:11 34:12 35:9 36:10 37:19 38:15 39:11 
-0.1702224637346608 -0.1849847134172327 -0.1752200894823873 -0.1815835421061406 -0.1734574806035499 -0.1521239131843757 0.1794434090581538 0.1864597208571956 0.1770428508132866 0.1804159832037702 0.1801477454974119 0.1931532942758968 0.1815620994365102 0.1963825852891177 0.1629299469359392 0.212734280910662 0.2016014919908662 0.1838487897781377 0.1923518800458763 0.210457515044201 0.1875241092715474 0.1872902503856772 0.2134098529962185 0.2114583068945133 0.1909593749675722 0.1799819664384635 0.1888214713041194 1:3 2:7 3:9 4:7 5:7 6:6 7:6 8:7 9:8 10:6 11:7 12:7 13:6 14:7 15:6 16:6 17:6 18:8 19:9 20:7 21:6 22:1 28:6 29:14 30:18 31:16 32:11 33:9 34:9 35:12 36:20 37:15 38:11 39:1 
-0.8138006934189412 -0.8895138159063225 -0.8354402627486068 -0.8711505036146044 -0.860099704003315 -0.7285349712623027 0.8608268892735762 0.888782409362067 0.8406304965020659 0.861213309697229 0.8580198295434399 0.9192999866047138 0.868560877297992 0.9358144147461779 0.7817714652364061 1 0.9602066981878368 0.8800677302741826 0.9183256485771546 1 0.8990769788748179 0.8931153659841954 1 1 0.9085281545835708 0.8631741916344744 0.9022605147763256 1:3 2:8 3:9 4:7 5:7 6:6 7:7 8:7 9:8 10:6 11:8 12:8 13:7 14:7 15:7 16:7 17:7 18:8 19:9 20:7 21:3 22:1 23:1 24:1 25:1 26:1 27:1 28:1 29:7 30:14 31:18 32:14 33:10 34:11 35:14 36:15 37:19 38:16 39:13 
-0.4116216121720986 -0.4512627886478465 -0.4233333913532465 -0.4395961631040591 -0.4307938138788586 -0.3684913584684331 0.4361171566348771 0.4497296378963028 0.4262560900926425 0.4355816783237272 0.4345726068417113 0.465678359302069 0.4389873592060312 0.4746233673215138 0.3955138962769157 0.5130479341679259 0.4857247640809173 0.4462519299492405 0.4651313597847102 0.5067140514514202 0.4545066891319794 0.4525108619065635 0.5153527590125483 0.5099313850504665 0.4603543140364307 0.4371397428673488 0.4567120955374082 1:6 2:7 3:9 4:9 5:7 6:6 7:5 8:6 9:8 10:6 11:7 12:7 13:6 14:6 15:6 16:6 17:6 18:8 19:9 20:8 21:3 28:1 29:6 30:14 31:18 32:14 33:12 34:9 35:9 36:10 37:20 38:16 39:12 
-0.2174285300078807 -0.2378612156311846 -0.2234891934309789 -0.2344314741449837 -0.2328208842196236 -0.1950140411533305 0.2302528143411423 0.2383479940601799 0.2252280948991985 0.2307991760631007 0.2293942274270125 0.2466869094069369 0.2326896435867474 0.2499012570418775 0.2097457800314189 0.2724425169258541 0.2572181291451454 0.2358105986326006 0.2459220961352019 0.267388975273716 0.2409439273600608 0.2388860140065595 0.272521098577519 0.2694733230159675 0.2431557036806528 0.2306442309773718 0.2415370483442612 1:3 2:7 3:9 4:7 5:7 6:6 7:6 8:6 9:8 10:7 11:9 12:8 13:6 14:6 15:6 16:6 17:6 18:8 19:9 20:7 21:2 28:1 29:6 30:14 31:18 32:14 33:10 34:9 35:9 36:10 37:19 38:16 39:13 
-0.04934120001288088 -0.05304576352534167 -0.05177439660410308 -0.05183478633776782 -0.05545000609063461 -0.04400042325010484 0.05400543874350952 0.05472325983888141 0.05193737273876736 0.0538465028634677 0.05210620416230502 0.05660109254056844 0.05327922860768503 0.05864773668832603 0.0474852591462176 0.06564715911957326 0.06106901738452734 0.05482735302414404 0.05646613034995485 0.06491147071468274 0.0557616991503353 0.05473819146260839 0.06570911884482011 0.0653071246259329 0.05570420768369543 0.05318471959677825 0.05507985660487984 1:2 2:7 3:9 4:8 5:7 6:6 7:6 8:6 9:8 10:6 11:9 12:8 13:6 14:6 15:6 16:6 17:6 18:8 19:9 20:7 21:3 28:6 29:15 30:18 31:14 32:11 33:9 34:9 35:10 36:19 37:16 38:11 39:1 
-0.04073607670736828 -0.04679385540800483 -0.04250822183464285 -0.04466054247073766 -0.04222076556881583 -0.03669415493411782 0.04284369801229763 0.04468814809214306 0.04158287802504824 0.04326141253413903 0.04347958517938116 0.04611185327683498 0.04364294074013272 0.0468506683312792 0.03963007195681639 0.04889464971755986 0.0474632363444342 0.04319366879514167 0.04586268396136182 0.0490268542612248 0.04483953165039189 0.04453276312560767 0.04965852976822357 0.04958772551105264 0.04492470139365073 0.0426600136442253 0.04500057531928091 1:3 2:7 3:9 4:7 5:8 6:6 7:7 8:6 9:8 10:6 11:7 12:7 13:6 14:6 15:6 16:6 17:6 18:8 19:9 20:7 21:2 28:6 29:14 30:18 31:15 32:10 33:9 34:9 35:11 36:19 37:15 38:11 
-0.5445730281883867 -0.5947661952279902 -0.5588259752591914 -0.5833878339855301 -0.5739894374148915 -0.4872334256843259 0.576386477784441 0.5949656577940878 0.5626407560195416 0.575938796557757 0.5749327854479933 0.6146914177669086 0.5814364457988324 0.6264330798555394 0.5236902537512145 0.6802562874302663 0.6436389206269082 0.5888693636807281 0.6145208858128582 0.6710698909198614 0.6017466301832649 0.5978045095948922 0.6823230442643098 0.6757246191742831 0.6080128681497006 0.5774891940913848 0.6040811931699791 1:3 2:7 3:9 4:7 5:7 6:6 7:6 8:6 9:8 10:6 11:7 12:7 13:6 14:7 15:6 16:6 17:7 18:8 19:9 20:9 21:3 23:1 24:3 25:1 28:7 29:15 30:18 31:16 32:14 33:10 34:9 35:10 36:19 37:15 38:11 39:1 
-0.6791541049653378 -0.7426799513500412 -0.6973894000666661 -0.7346982354183892 -0.7146642039992488 -0.6084942105039459 0.7184668865323475 0.741912861467627 0.7023254681450741 0.7187495087268099 0.7165391302391296 0.7671803278155657 0.7246392449710777 0.7821021648846226 0.6526183346702705 0.8509575965669748 0.8030489232938136 0.7344034680636975 0.7672508672267331 0.8395067700626153 0.750476713544139 0.7456140833813367 0.8528458147144471 0.843845052565801 0.7581916580239528 0.7208486367303893 0.7532794799462443 1:4 2:8 3:11 4:7 5:6 6:6 7:5 8:6 9:8 10:8 11:8 12:8 13:7 14:6 15:6 16:6 17:6 18:8 19:11 20:8 21:3 28:5 29:14 30:18 31:14 32:11 33:10 34:9 35:11 36:19 37:17 38:15 39:3 
-0.8750019745835362 -0.9557889438241177 -0.8979618975990992 -0.9351956174352395 -0.9207679643831254 -0.7829150743449133 0.9255923892094797 0.955857993996021 0.9039233551363265 0.9254692780007761 0.9225184020018908 0.9882222346061927 0.9337888915818072 1 0.8401572950756913 1 1 0.9462743167688262 0.9873502263419631 1 0.9663533611305054 0.9600171276053788 1 1 0.9768903696514494 0.9278313419189186 0.9698411994932421 1:3 2:7 3:9 4:7 5:6 6:6 7:5 8:7 9:8 10:6 11:8 12:8 13:6 14:6 15:6 16:6 17:6 18:8 19:9 20:7 21:3 25:6 26:5 28:4 29:15 30:19 31:15 32:12 33:10 34:10 35:12 36:20 37:17 38:13 39:1 
-0.6133233028803469 -0.6697598389868349 -0.6291059407656292 -0.65792604166417 -0.6443114113334659 -0.5490851331704483 0.6486833941653524 0.6695205744906231 0.6337828296562008 0.6485740627466509 0.6467469311883612 0.6924829289149282 0.6546032769307553 0.7049655356115196 0.5893747572777148 0.7647625846388973 0.7238727025165246 0.6630850686955576 0.6919439735640269 0.7543919629084126 0.6770589083156527 0.673403734668061 0.7653765157553335 0.7583878344261962 0.6849278693778832 0.6505526198275189 0.6803100386659615 1:5 2:9 3:9 4:7 5:7 6:8 7:10 8:6 9:8 10:6 11:8 12:6 13:6 14:7 15:6 16:6 17:6 18:8 19:9 20:7 21:3 28:6 29:15 30:18 31:16 32:11 33:10 34:10 35:12 36:20 37:16 38:11 39:2 
-0.2558202439273686 -0.282313570807085 -0.2621482052635498 -0.2745850912963005 -0.2752039079041813 -0.2236785972035845 -0.2315441318329759 0.2812070578544679 0.264214783925647 0.2718939434902938 0.2702227725898418 0.2940013108688169 0.2733067353337011 0.3008742587865847 0.2405446107908409 0.3309824022442213 0.3099297083961909 0.2786398442192651 0.2937475072827225 0.3253092722583615 0.2855274584905573 0.2837241317118103 0.3322108328994932 0.3282698933699588 0.290420647583373 0.2721865806654613 0.2882484555937413 1:3 2:7 3:8 4:8 5:6 6:6 7:6 8:7 9:7 10:10 11:8 12:7 13:4 14:3 15:3 16:3 17:3 18:3 19:4 20:3 21:3 22:1 29:3 30:7 31:13 32:12 33:12 34:11 35:12 36:11 37:14 38:11 39:7 
-0.4671568825985332 -0.519214626334227 -0.4811227117785751 -0.5055239004103574 -0.4978940612663901 -0.4110440757034523 -0.4247400493917911 0.5189660525112398 0.4853288099206475 0.4987934445556111 0.4964108084093234 0.541234562141255 0.5043312451424276 0.5540070887445406 0.4404155834429 0.6086545619677151 0.5706969740657086 0.5130433014728031 0.5408456887304013 0.5990087841483929 0.5261051811689772 0.5224735328275679 0.6099124903631502 0.6034620245098635 0.5338802282813641 0.5002115556307669 0.5286757228263297 1:3 2:6 3:8 4:8 5:6 6:6 7:6 8:8 9:10 10:10 11:9 12:7 13:4 14:4 15:6 16:4 17:3 18:3 19:3 20:3 21:3 29:3 30:8 31:10 32:13 33:16 34:14 35:13 36:11 37:14 38:11 39:7 
-0.4136194338082024 -0.4601845216171112 -0.426172830696291 -0.447554441179521 -0.4454436714262146 -0.3637784115255173 -0.376689692610107 0.4600304894805402 0.429343425414173 0.4415724832737077 0.4404338274048709 0.4793811719702566 0.4461543750807525 0.4903147925417935 0.3903112007096752 0.5394817432061857 0.5051913332856961 0.4536367474396468 0.4788500161432314 0.5313256284007801 0.4656904363139425 0.4620393316785923 0.5403703908634641 0.5343840212913745 0.4727933098013024 0.4435027606361582 0.4683439238311043 1:3 2:7 3:8 4:8 5:9 6:5 7:6 8:7 9:7 10:10 11:10 12:8 13:5 14:4 15:4 16:4 17:4 18:4 19:3 20:3 21:3 28:2 29:8 30:8 31:11 32:12 33:12 34:12 35:13 36:12 37:14 38:11 39:7 
-0.4768456256182297 -0.529112634537118 -0.4902216425790367 -0.5143161727195997 -0.5054761917240699 -0.4186005876513075 -0.4325240081550149 0.5291972469518841 0.4942862997400486 0.5077266675339291 0.5064676889681263 0.5516962579898166 0.5136175134112106 0.5641246175566966 0.4494116072524011 0.6201095786894297 0.5813867211536951 0.5222787417486611 0.5504703439225158 0.6110968658863452 0.5365357291105951 0.5319432953326227 0.6211289601059622 0.614232856090147 0.5440008999885286 0.5097357192967812 0.5387449936368984 1:4 2:7 3:9 4:8 5:6 6:11 7:7 8:7 9:7 10:10 11:8 12:7 13:4 14:3 15:4 16:3 17:3 18:3 19:3 20:3 21:3 24:1 25:3 26:1 28:1 29:3 30:8 31:11 32:13 33:13 34:13 35:13 36:13 37:15 38:14 39:8 
-0.5407721908402782 -0.6014066516514752 -0.5573574135260688 -0.5845941921665916 -0.5730665009928386 -0.476157683335098 -0.4916143157688855 0.601047693836953 0.5617821788574431 0.5777761332763033 0.5754696204978027 0.6266267619317886 0.5835396438167741 0.6408580543695029 0.5101070378453828 0.7052670124005624 0.6606749827207308 0.5936115179004395 0.6263630431611373 0.694091931989235 0.6097582076014352 0.6043064478100943 0.7068480860765914 0.6987601640379578 0.617633157411508 0.5792244922053574 0.6125046644272284 1:3 2:7 3:8 4:7 5:9 6:10 7:9 8:9 9:7 10:10 11:8 12:7 13:4 14:3 15:4 16:3 17:3 18:3 19:3 20:3 21:3 25:1 26:3 27:1 28:3 29:7 30:8 31:11 32:13 33:13 34:14 35:14 36:13 37:14 38:11 39:7 
-0.6424007775983933 -0.7149171088795286 -0.6602176042569047 -0.6928509679214929 -0.6878031333311561 -0.5646422291736068 -0.5830071144022626 0.7125445823460094 0.6657317836905748 0.6844475961388632 0.6822202565689551 0.742563445776962 0.6917712091773561 0.7595974347750597 0.6047931859484729 0.8352219505274584 0.7830108663470415 0.7031069315178936 0.7416818291241535 0.8231719090091392 0.7223116861431763 0.7163049351811274 0.8367584857980838 0.8282939950863686 0.7324501161668383 0.6864728029554906 0.7257953513083599 1:3 2:6 3:9 4:7 5:5 6:5 7:5 8:6 9:6 10:9 11:8 12:7 13:3 14:3 15:5 16:4 17:5 18:7 19:3 20:3 21:3 25:1 26:3 27:1 28:2 29:4 30:5 31:9 32:11 33:13 34:12 35:12 36:12 37:11 38:15 39:11 
-0.1865296434665309 -0.2051035105838803 -0.1905799000235803 -0.2000849344652035 -0.1958493856962835 -0.1619103440658043 -0.1692951238270724 0.2051759712422308 0.1915263782185036 0.196548690437481 0.1958602918429129 0.2137595751249242 0.199348456805325 0.2188160950960203 0.1732988907278009 0.2409893064457822 0.2258487489644655 0.2021222882607965 0.213866241282746 0.237617459396739 0.2085173729103273 0.2059895743814727 0.2418121087692418 0.2385824561922336 0.2110128429070292 0.1971680683852775 0.2084534993742597 1:3 2:8 3:9 4:8 5:8 6:7 7:7 8:7 9:9 10:10 11:9 12:7 13:4 14:3 15:3 16:3 17:3 18:3 19:5 20:3 21:4 22:1 28:1 29:4 30:9 31:13 32:13 33:13 34:12 35:14 36:11 37:14 38:11 39:9 
-0.0157169522010569 -0.01757791799786704 -0.0158593539880354 -0.01740634706775205 -0.02028420662078777 -0.01394953630128935 -0.01367085163136763 0.01783790389114137 0.01595039316976953 0.01649498082402729 0.01664955563057926 0.01840418851863827 0.01725212702257971 0.01851626506524874 0.01385818156924709 0.020501972389767 0.01943243265480928 0.01737669128485661 0.01845300876442395 0.02026335659042539 0.01840346602149542 0.01708341710250071 0.02018772900240367 0.0200230852774197 0.01720734213817893 0.01634712121725232 0.01750796064408124 1:2 2:6 3:8 4:8 5:6 6:6 7:6 8:7 9:7 10:10 11:10 12:7 13:4 14:3 15:4 16:3 17:3 18:3 19:3 20:3 21:3 29:4 30:8 31:10 32:12 33:11 34:12 35:12 36:11 37:14 38:11 39:7 
-0.2986766598806951 -0.3330939479976138 -0.3090866978956618 -0.3233640609506349 -0.3156215298920818 -0.2634277258996892 -0.2716701183617736 0.3331514937342969 0.3108683223806445 0.3196056625722535 0.3189099889214572 0.3472724614530364 0.3231052606406445 0.3543655957139094 0.2834252238643489 0.3899964909166135 0.3656609366580429 0.3284550627276343 0.3458985972238185 0.3847907287824495 0.3375828286401827 0.3349935462160376 0.3902648177753524 0.3867805116979969 0.3416334715418847 0.3209696846226164 0.3391401448868214 1:3 2:7 3:9 4:10 5:8 6:5 7:7 8:10 9:9 10:10 11:8 12:7 13:4 14:3 15:4 16:3 17:3 18:3 19:3 20:3 21:3 28:1 29:4 30:8 31:11 32:12 33:13 34:14 35:15 36:12 37:14 38:11 39:7 
-0.1766540863911548 -0.1836681759567539 -0.16893351210666 -0.1761163911672892 -0.1763125216100175 -0.1464651899893099 -0.15001768727622 0.1807412291777106 0.1704243360590961 0.1746905120111217 0.174611193357047 0.1917323191811984 0.1772393964000713 0.1945625660092565 0.1549979303070174 0.2139639918272799 0.2004538446841754 0.179501253915025 0.190061544712588 0.210562772394411 0.185920375684189 0.1842753196257857 0.2132613788506268 0.2134277075866847 0.1871746068943823 0.1756643460261747 0.1856305060326044 1:3 2:7 3:8 4:7 5:5 6:5 7:5 8:6 9:6 10:9 11:8 12:7 13:4 14:3 15:4 16:3 17:3 18:3 19:4 20:3 21:3 27:1 30:3 31:7 32:11 33:12 34:12 35:12 36:13 37:12 38:14 39:11 
-0.5634990478548395 -0.6272095796182654 -0.5818506179503111 -0.6103806539946173 -0.5982524558910733 -0.495967672103325 -0.5130516677902088 0.6280231606712346 0.5863894498711164 0.6032490728085476 0.5997872745759649 0.6538892354276865 0.6095338761471245 0.6685795255106122 0.5328352929530171 0.7354290602677596 0.6896124839971696 0.6196054383180003 0.6534820152758776 0.7243612348006468 0.6362902206522968 0.6304075279042747 0.7370717622009963 0.7290239036989981 0.6443241034006608 0.6046238902065231 0.6390496497516918 1:3 2:7 3:8 4:7 5:5 6:5 7:5 8:6 9:6 10:9 11:8 12:7 13:4 14:3 15:4 16:3 17:3 18:3 19:3 20:3 21:3 23:1 24:3 25:3 26:1 30:3 31:7 32:12 33:13 34:13 35:13 36:13 37:12 38:15 39:12 
-0.09821724789212179 -0.1094396795653933 -0.1009167114633563 -0.1065383887824957 -0.1009803986564654 -0.08750643832889024 -0.08940461445739835 0.1093206911894088 0.1023711929273209 0.1049181521759312 0.1046595504893519 0.1136538797885655 0.106332764194574 0.1170154627871314 0.09345554501319839 0.1274407654080521 0.1200940705301765 0.1073138938697645 0.1137848906699685 0.1254155013165776 0.1103032047526427 0.1104725339275861 0.1279877753990569 0.1271485476477155 0.1119156717692672 0.104981998614789 0.1106554624083996 1:4 2:8 3:11 4:8 5:6 6:6 7:7 8:7 9:7 10:10 11:8 12:7 13:4 14:3 15:4 16:3 17:3 18:3 19:3 20:3 21:3 28:2 29:4 30:9 31:12 32:12 33:12 34:12 35:12 36:11 37:14 38:11 39:7 
